<?xml version="1.0"?>
<MethodSetup Method="BDT::BDTG150">
  <GeneralInfo>
    <Info name="TMVA Release" value="4.2.1 [262657]"/>
    <Info name="ROOT Release" value="6.06/02 [394754]"/>
    <Info name="Creator" value="ralibert"/>
    <Info name="Date" value="Wed Dec 14 15:14:11 2016"/>
    <Info name="Host" value="Linux lcgapp-slc6-physical1.cern.ch 2.6.32-573.8.1.el6.x86_64 #1 SMP Wed Nov 11 15:27:45 CET 2015 x86_64 x86_64 x86_64 GNU/Linux"/>
    <Info name="Dir" value="/eos/user/r/ralibert/PID_TMVA_Analysis"/>
    <Info name="Training events" value="2798665"/>
    <Info name="TrainingTime" value="3.55467307e+03"/>
    <Info name="AnalysisType" value="Multiclass"/>
  </GeneralInfo>
  <Options>
    <Option name="V" modified="Yes">False</Option>
    <Option name="VerbosityLevel" modified="No">Default</Option>
    <Option name="VarTransform" modified="No">None</Option>
    <Option name="H" modified="Yes">False</Option>
    <Option name="CreateMVAPdfs" modified="No">False</Option>
    <Option name="IgnoreNegWeightsInTraining" modified="No">False</Option>
    <Option name="NTrees" modified="Yes">150</Option>
    <Option name="MaxDepth" modified="Yes">3</Option>
    <Option name="MinNodeSize" modified="Yes">5</Option>
    <Option name="nCuts" modified="No">20</Option>
    <Option name="BoostType" modified="Yes">Grad</Option>
    <Option name="AdaBoostR2Loss" modified="No">quadratic</Option>
    <Option name="UseBaggedBoost" modified="No">False</Option>
    <Option name="Shrinkage" modified="No">1.000000e+00</Option>
    <Option name="AdaBoostBeta" modified="No">5.000000e-01</Option>
    <Option name="UseRandomisedTrees" modified="No">False</Option>
    <Option name="UseNvars" modified="No">4</Option>
    <Option name="UsePoissonNvars" modified="No">True</Option>
    <Option name="BaggedSampleFraction" modified="No">6.000000e-01</Option>
    <Option name="UseYesNoLeaf" modified="No">True</Option>
    <Option name="NegWeightTreatment" modified="No">ignorenegweightsintraining</Option>
    <Option name="Css" modified="No">1.000000e+00</Option>
    <Option name="Cts_sb" modified="No">1.000000e+00</Option>
    <Option name="Ctb_ss" modified="No">1.000000e+00</Option>
    <Option name="Cbb" modified="No">1.000000e+00</Option>
    <Option name="NodePurityLimit" modified="No">5.000000e-01</Option>
    <Option name="SeparationType" modified="No">giniindex</Option>
    <Option name="DoBoostMonitor" modified="No">False</Option>
    <Option name="UseFisherCuts" modified="No">False</Option>
    <Option name="MinLinCorrForFisher" modified="No">8.000000e-01</Option>
    <Option name="UseExclusiveVars" modified="No">False</Option>
    <Option name="DoPreselection" modified="Yes">True</Option>
    <Option name="SigToBkgFraction" modified="No">1.000000e+00</Option>
    <Option name="PruneMethod" modified="No">nopruning</Option>
    <Option name="PruneStrength" modified="No">0.000000e+00</Option>
    <Option name="PruningValFraction" modified="No">5.000000e-01</Option>
    <Option name="nEventsMin" modified="No">0</Option>
    <Option name="UseBaggedGrad" modified="No">False</Option>
    <Option name="GradBaggingFraction" modified="No">6.000000e-01</Option>
    <Option name="UseNTrainEvents" modified="No">0</Option>
    <Option name="NNodesMax" modified="No">0</Option>
  </Options>
  <Variables NVar="14">
    <Variable VarIndex="0" Expression="(LKrEnergy+MUV1Energy+MUV2Energy)__D__Momentum" Label="(LKrEnergy+MUV1Energy+MUV2Energy)__D__Momentum" Title="EoP" Unit=" " Internal="_LKrEnergy_P_MUV1Energy_P_MUV2Energy__D_Momentum" Type="F" Min="1.75649002e-02" Max="1.61717665e+00"/>
    <Variable VarIndex="1" Expression="LKrEnergy__D__Momentum" Label="LKrEnergy__D__Momentum" Title="ELKr_oP" Unit=" " Internal="LKrEnergy_D_Momentum" Type="F" Min="4.25175671e-03" Max="1.19989622e+00"/>
    <Variable VarIndex="2" Expression="(MUV2Energy)__D__(LKrEnergy+MUV1Energy+MUV2Energy)" Label="(MUV2Energy)__D__(LKrEnergy+MUV1Energy+MUV2Energy)" Title="MUV2_Energy_Fraction" Unit=" " Internal="_MUV2Energy__D__LKrEnergy_P_MUV1Energy_P_MUV2Energy_" Type="F" Min="0.00000000e+00" Max="9.84591544e-01"/>
    <Variable VarIndex="3" Expression="(MUV1Energy)__D__(LKrEnergy+MUV1Energy+MUV2Energy)" Label="(MUV1Energy)__D__(LKrEnergy+MUV1Energy+MUV2Energy)" Title="MUV1_Energy_Fraction" Unit=" " Internal="_MUV1Energy__D__LKrEnergy_P_MUV1Energy_P_MUV2Energy_" Type="F" Min="0.00000000e+00" Max="9.94218349e-01"/>
    <Variable VarIndex="4" Expression="LKrEnergy__D__(LKrEnergy+MUV1Energy+MUV2Energy)" Label="LKrEnergy__D__(LKrEnergy+MUV1Energy+MUV2Energy)" Title="LKr_Energy_Fraction" Unit=" " Internal="LKrEnergy_D__LKrEnergy_P_MUV1Energy_P_MUV2Energy_" Type="F" Min="3.93037358e-03" Max="1.00000000e+00"/>
    <Variable VarIndex="5" Expression="(MUV1Energy*MUV1Weight+MUV2Energy*MUV2Weight)__D__(MUV1Energy+MUV2Energy)" Label="(MUV1Energy*MUV1Weight+MUV2Energy*MUV2Weight)__D__(MUV1Energy+MUV2Energy)" Title="HAC_Weight" Unit=" " Internal="_MUV1Energy_T_MUV1Weight_P_MUV2Energy_T_MUV2Weight__D__MUV1Energy_P_MUV2Energy_" Type="F" Min="0.00000000e+00" Max="9.78905916e-01"/>
    <Variable VarIndex="6" Expression="LKrRMS" Label="LKrRMS" Title="LKrRMS" Unit=" " Internal="LKrRMS" Type="F" Min="0.00000000e+00" Max="2.12131367e+01"/>
    <Variable VarIndex="7" Expression="(MUV1SeedEnergy+MUV2SeedEnergy)__D__(MUV1Energy+MUV2Energy)" Label="(MUV1SeedEnergy+MUV2SeedEnergy)__D__(MUV1Energy+MUV2Energy)" Title="HAC_Inner_Energy" Unit=" " Internal="_MUV1SeedEnergy_P_MUV2SeedEnergy__D__MUV1Energy_P_MUV2Energy_" Type="F" Min="0.00000000e+00" Max="2.55449462e+00"/>
    <Variable VarIndex="8" Expression="(MUV1NHits)__D__(MUV1Energy+1)+2*(MUV2NHits)__D__(MUV2Energy+1)" Label="(MUV1NHits)__D__(MUV1Energy+1)+2*(MUV2NHits)__D__(MUV2Energy+1)" Title="HAC_Hits" Unit=" " Internal="_MUV1NHits__D__MUV1Energy_P_1__P_2_T__MUV2NHits__D__MUV2Energy_P_1_" Type="F" Min="-3.00000000e+00" Max="1.58228472e-01"/>
    <Variable VarIndex="9" Expression="(LKrSeedEnergy)__D__(LKrEnergy)" Label="(LKrSeedEnergy)__D__(LKrEnergy)" Title="LKr_Seed_Fraction" Unit=" " Internal="_LKrSeedEnergy__D__LKrEnergy_" Type="F" Min="2.02553300e-03" Max="1.19961548e+00"/>
    <Variable VarIndex="10" Expression="LKrNCells/LKrEnergy" Label="LKrNCells/LKrEnergy" Title="LKr_Cells" Unit=" " Internal="LKrNCells_D_LKrEnergy" Type="F" Min="2.94149911e-04" Max="2.91182011e-01"/>
    <Variable VarIndex="11" Expression="LKrDist" Label="LKrDist" Title="LKrDist" Unit=" " Internal="LKrDist" Type="F" Min="5.21080103e-03" Max="9.78875046e+01"/>
    <Variable VarIndex="12" Expression="MUV1Dist" Label="MUV1Dist" Title="MUV1Dist" Unit=" " Internal="MUV1Dist" Type="F" Min="-1.00000000e+00" Max="1.15238684e+03"/>
    <Variable VarIndex="13" Expression="MUV2Dist" Label="MUV2Dist" Title="MUV2Dist" Unit=" " Internal="MUV2Dist" Type="F" Min="-1.00000000e+00" Max="1.17646411e+03"/>
  </Variables>
  <Spectators NSpec="2">
    <Spectator SpecIndex="0" Expression="Momentum" Label="Momentum" Title="Momentum" Unit="F" Internal="Momentum" Type="F" Min="4.59254150e+03" Max="5.99999102e+04"/>
    <Spectator SpecIndex="1" Expression="Easym" Label="Easym" Title="LKr_HAC_Asym" Unit="F" Internal="_LKrEnergy_M__MUV1Energy_P_MUV2Energy___D__LKrEnergy_P__MUV1Energy_P_MUV2Energy__" Type="F" Min="-9.92139280e-01" Max="1.00000000e+00"/>
  </Spectators>
  <Classes NClass="3">
    <Class Name="Pion" Index="0"/>
    <Class Name="Muon" Index="1"/>
    <Class Name="Electron" Index="2"/>
  </Classes>
  <Transformations NTransformations="0"/>
  <MVAPdfs/>
  <Weights PreselectionLowBkgVar0="0" PreselectionLowBkgVar0Value="0.0000000000000000e+00" PreselectionLowSigVar0="0" PreselectionLowSigVar0Value="0.0000000000000000e+00" PreselectionHighBkgVar0="0" PreselectionHighBkgVar0Value="0.0000000000000000e+00" PreselectionHighSigVar0="0" PreselectionHighSigVar0Value="0.0000000000000000e+00" PreselectionLowBkgVar1="0" PreselectionLowBkgVar1Value="0.0000000000000000e+00" PreselectionLowSigVar1="0" PreselectionLowSigVar1Value="0.0000000000000000e+00" PreselectionHighBkgVar1="0" PreselectionHighBkgVar1Value="0.0000000000000000e+00" PreselectionHighSigVar1="0" PreselectionHighSigVar1Value="0.0000000000000000e+00" PreselectionLowBkgVar2="0" PreselectionLowBkgVar2Value="0.0000000000000000e+00" PreselectionLowSigVar2="0" PreselectionLowSigVar2Value="0.0000000000000000e+00" PreselectionHighBkgVar2="0" PreselectionHighBkgVar2Value="0.0000000000000000e+00" PreselectionHighSigVar2="0" PreselectionHighSigVar2Value="0.0000000000000000e+00" PreselectionLowBkgVar3="0" PreselectionLowBkgVar3Value="0.0000000000000000e+00" PreselectionLowSigVar3="0" PreselectionLowSigVar3Value="0.0000000000000000e+00" PreselectionHighBkgVar3="0" PreselectionHighBkgVar3Value="0.0000000000000000e+00" PreselectionHighSigVar3="0" PreselectionHighSigVar3Value="0.0000000000000000e+00" PreselectionLowBkgVar4="0" PreselectionLowBkgVar4Value="0.0000000000000000e+00" PreselectionLowSigVar4="0" PreselectionLowSigVar4Value="0.0000000000000000e+00" PreselectionHighBkgVar4="0" PreselectionHighBkgVar4Value="0.0000000000000000e+00" PreselectionHighSigVar4="0" PreselectionHighSigVar4Value="0.0000000000000000e+00" PreselectionLowBkgVar5="0" PreselectionLowBkgVar5Value="0.0000000000000000e+00" PreselectionLowSigVar5="0" PreselectionLowSigVar5Value="0.0000000000000000e+00" PreselectionHighBkgVar5="0" PreselectionHighBkgVar5Value="0.0000000000000000e+00" PreselectionHighSigVar5="0" PreselectionHighSigVar5Value="0.0000000000000000e+00" PreselectionLowBkgVar6="0" PreselectionLowBkgVar6Value="0.0000000000000000e+00" PreselectionLowSigVar6="0" PreselectionLowSigVar6Value="0.0000000000000000e+00" PreselectionHighBkgVar6="0" PreselectionHighBkgVar6Value="0.0000000000000000e+00" PreselectionHighSigVar6="0" PreselectionHighSigVar6Value="0.0000000000000000e+00" PreselectionLowBkgVar7="0" PreselectionLowBkgVar7Value="0.0000000000000000e+00" PreselectionLowSigVar7="0" PreselectionLowSigVar7Value="0.0000000000000000e+00" PreselectionHighBkgVar7="0" PreselectionHighBkgVar7Value="0.0000000000000000e+00" PreselectionHighSigVar7="0" PreselectionHighSigVar7Value="0.0000000000000000e+00" PreselectionLowBkgVar8="0" PreselectionLowBkgVar8Value="0.0000000000000000e+00" PreselectionLowSigVar8="0" PreselectionLowSigVar8Value="0.0000000000000000e+00" PreselectionHighBkgVar8="0" PreselectionHighBkgVar8Value="0.0000000000000000e+00" PreselectionHighSigVar8="0" PreselectionHighSigVar8Value="0.0000000000000000e+00" PreselectionLowBkgVar9="0" PreselectionLowBkgVar9Value="0.0000000000000000e+00" PreselectionLowSigVar9="0" PreselectionLowSigVar9Value="0.0000000000000000e+00" PreselectionHighBkgVar9="0" PreselectionHighBkgVar9Value="0.0000000000000000e+00" PreselectionHighSigVar9="0" PreselectionHighSigVar9Value="0.0000000000000000e+00" PreselectionLowBkgVar10="0" PreselectionLowBkgVar10Value="0.0000000000000000e+00" PreselectionLowSigVar10="0" PreselectionLowSigVar10Value="0.0000000000000000e+00" PreselectionHighBkgVar10="0" PreselectionHighBkgVar10Value="0.0000000000000000e+00" PreselectionHighSigVar10="0" PreselectionHighSigVar10Value="0.0000000000000000e+00" PreselectionLowBkgVar11="0" PreselectionLowBkgVar11Value="0.0000000000000000e+00" PreselectionLowSigVar11="0" PreselectionLowSigVar11Value="0.0000000000000000e+00" PreselectionHighBkgVar11="0" PreselectionHighBkgVar11Value="0.0000000000000000e+00" PreselectionHighSigVar11="0" PreselectionHighSigVar11Value="0.0000000000000000e+00" PreselectionLowBkgVar12="0" PreselectionLowBkgVar12Value="0.0000000000000000e+00" PreselectionLowSigVar12="0" PreselectionLowSigVar12Value="0.0000000000000000e+00" PreselectionHighBkgVar12="0" PreselectionHighBkgVar12Value="0.0000000000000000e+00" PreselectionHighSigVar12="0" PreselectionHighSigVar12Value="0.0000000000000000e+00" PreselectionLowBkgVar13="0" PreselectionLowBkgVar13Value="0.0000000000000000e+00" PreselectionLowSigVar13="0" PreselectionLowSigVar13Value="0.0000000000000000e+00" PreselectionHighBkgVar13="0" PreselectionHighBkgVar13Value="0.0000000000000000e+00" PreselectionHighSigVar13="0" PreselectionHighSigVar13Value="0.0000000000000000e+00" NTrees="450" AnalysisType="1">
    <BinaryTree type="DecisionTree" boostWeight="1.0000000000000000e+00" itree="0">
      <Node pos="s" depth="0" NCoef="0" IVar="5" Cut="3.2630196213722229e-01" cType="1" res="1.6666667163372040e-01" rms="5.0000000000000000e-01" purity="5.0000000000000000e-01" nType="0">
        <Node pos="l" depth="1" NCoef="0" IVar="6" Cut="1.1111642837524414e+01" cType="1" res="-5.7808041572570801e-02" rms="4.4677859544754028e-01" purity="2.7552530169487000e-01" nType="0">
          <Node pos="l" depth="2" NCoef="0" IVar="12" Cut="1.0431740570068359e+02" cType="1" res="-2.4282427132129669e-01" rms="2.8690969944000244e-01" purity="9.0509057044982910e-02" nType="0">
            <Node pos="l" depth="3" NCoef="0" IVar="-1" Cut="0.0000000000000000e+00" cType="1" res="-4.0250971913337708e-01" rms="2.1719585359096527e-01" purity="4.9637965857982635e-02" nType="-99"/>
            <Node pos="r" depth="3" NCoef="0" IVar="-1" Cut="0.0000000000000000e+00" cType="1" res="1.5040688216686249e-01" rms="4.9617186188697815e-01" purity="4.3824654817581177e-01" nType="-99"/>
          </Node>
          <Node pos="r" depth="2" NCoef="0" IVar="12" Cut="1.0653633880615234e+02" cType="1" res="6.3065439462661743e-01" rms="1.8632073700428009e-01" purity="9.6398770809173584e-01" nType="0">
            <Node pos="l" depth="3" NCoef="0" IVar="-1" Cut="0.0000000000000000e+00" cType="1" res="9.1057330369949341e-01" rms="2.8348216414451599e-01" purity="9.1187113523483276e-01" nType="-99"/>
            <Node pos="r" depth="3" NCoef="0" IVar="-1" Cut="0.0000000000000000e+00" cType="1" res="1.0550011396408081e+00" rms="6.1689931899309158e-02" purity="9.9617975950241089e-01" nType="-99"/>
          </Node>
        </Node>
        <Node pos="r" depth="1" NCoef="0" IVar="2" Cut="9.3770623207092285e-02" cType="1" res="6.2474220991134644e-01" rms="2.0041665434837341e-01" purity="9.5807552337646484e-01" nType="0">
          <Node pos="l" depth="2" NCoef="0" IVar="2" Cut="2.6791293174028397e-02" cType="1" res="6.5702974796295166e-01" rms="9.7693599760532379e-02" purity="9.9036306142807007e-01" nType="0">
            <Node pos="l" depth="3" NCoef="0" IVar="-1" Cut="0.0000000000000000e+00" cType="1" res="1.0561401844024658e+00" rms="5.6368220597505569e-02" purity="9.9681246280670166e-01" nType="-99"/>
            <Node pos="r" depth="3" NCoef="0" IVar="-1" Cut="0.0000000000000000e+00" cType="1" res="9.9658107757568359e-01" rms="1.8749390542507172e-01" purity="9.6351486444473267e-01" nType="-99"/>
          </Node>
          <Node pos="r" depth="2" NCoef="0" IVar="-1" Cut="0.0000000000000000e+00" cType="1" res="7.5342667102813721e-01" rms="3.8174921274185181e-01" purity="8.2290482521057129e-01" nType="-99"/>
        </Node>
      </Node>
    </BinaryTree>
    <BinaryTree type="DecisionTree" boostWeight="1.0000000000000000e+00" itree="1">
      <Node pos="s" depth="0" NCoef="0" IVar="5" Cut="3.2630196213722229e-01" cType="1" res="1.6666667163372040e-01" rms="5.0000000000000000e-01" purity="2.5000000000000000e-01" nType="0">
        <Node pos="l" depth="1" NCoef="0" IVar="6" Cut="1.1111642837524414e+01" cType="1" res="-5.7808041572570801e-02" rms="4.4677859544754028e-01" purity="3.5196503996849060e-01" nType="0">
          <Node pos="l" depth="2" NCoef="0" IVar="12" Cut="1.0431740570068359e+02" cType="1" res="-2.4282427132129669e-01" rms="2.8690969944000244e-01" purity="4.4132816791534424e-01" nType="0">
            <Node pos="l" depth="3" NCoef="0" IVar="-1" Cut="0.0000000000000000e+00" cType="1" res="1.3314212858676910e-01" rms="2.1719585359096527e-01" purity="4.2717409133911133e-01" nType="-99"/>
            <Node pos="r" depth="3" NCoef="0" IVar="-1" Cut="0.0000000000000000e+00" cType="1" res="3.2747027277946472e-01" rms="4.9617186188697815e-01" purity="5.6175345182418823e-01" nType="-99"/>
          </Node>
          <Node pos="r" depth="2" NCoef="0" IVar="12" Cut="1.0653633880615234e+02" cType="1" res="6.3065439462661743e-01" rms="1.8632073700428009e-01" purity="1.9436601549386978e-02" nType="0">
            <Node pos="l" depth="3" NCoef="0" IVar="-1" Cut="0.0000000000000000e+00" cType="1" res="-4.5425742864608765e-01" rms="2.8348216414451599e-01" purity="4.4718313962221146e-02" nType="-99"/>
            <Node pos="r" depth="3" NCoef="0" IVar="-1" Cut="0.0000000000000000e+00" cType="1" res="-5.2446037530899048e-01" rms="6.1689931899309158e-02" purity="3.8202418945729733e-03" nType="-99"/>
          </Node>
        </Node>
        <Node pos="r" depth="1" NCoef="0" IVar="2" Cut="9.3770623207092285e-02" cType="1" res="6.2474220991134644e-01" rms="2.0041665434837341e-01" purity="4.1924498975276947e-02" nType="0">
          <Node pos="l" depth="2" NCoef="0" IVar="2" Cut="2.6791293174028397e-02" cType="1" res="6.5702974796295166e-01" rms="9.7693599760532379e-02" purity="9.6369087696075439e-03" nType="0">
            <Node pos="l" depth="3" NCoef="0" IVar="-1" Cut="0.0000000000000000e+00" cType="1" res="-5.2553308010101318e-01" rms="5.6368220597505569e-02" purity="3.1875362619757652e-03" nType="-99"/>
            <Node pos="r" depth="3" NCoef="0" IVar="-1" Cut="0.0000000000000000e+00" cType="1" res="-4.6944138407707214e-01" rms="1.8749390542507172e-01" purity="3.6485124379396439e-02" nType="-99"/>
          </Node>
          <Node pos="r" depth="2" NCoef="0" IVar="-1" Cut="0.0000000000000000e+00" cType="1" res="-2.4044291675090790e-01" rms="3.8174921274185181e-01" purity="1.7709514498710632e-01" nType="-99"/>
        </Node>
      </Node>
    </BinaryTree>
    <BinaryTree type="DecisionTree" boostWeight="1.0000000000000000e+00" itree="2">
      <Node pos="s" depth="0" NCoef="0" IVar="5" Cut="3.2630196213722229e-01" cType="1" res="1.6666667163372040e-01" rms="5.0000000000000000e-01" purity="2.5000000000000000e-01" nType="0">
        <Node pos="l" depth="1" NCoef="0" IVar="6" Cut="1.1111642837524414e+01" cType="1" res="-5.7808041572570801e-02" rms="4.4677859544754028e-01" purity="3.7250968813896179e-01" nType="0">
          <Node pos="l" depth="2" NCoef="0" IVar="12" Cut="1.0431740570068359e+02" cType="1" res="-2.4282427132129669e-01" rms="2.8690969944000244e-01" purity="4.6816274523735046e-01" nType="0">
            <Node pos="l" depth="3" NCoef="0" IVar="-1" Cut="0.0000000000000000e+00" cType="1" res="2.6936757564544678e-01" rms="2.1719585359096527e-01" purity="5.2318799495697021e-01" nType="-99"/>
            <Node pos="r" depth="3" NCoef="0" IVar="-1" Cut="0.0000000000000000e+00" cType="1" res="-4.7787716984748840e-01" rms="4.9617186188697815e-01" purity="0.0000000000000000e+00" nType="-99"/>
          </Node>
          <Node pos="r" depth="2" NCoef="0" IVar="12" Cut="1.0653633880615234e+02" cType="1" res="6.3065439462661743e-01" rms="1.8632073700428009e-01" purity="1.6575701534748077e-02" nType="0">
            <Node pos="l" depth="3" NCoef="0" IVar="-1" Cut="0.0000000000000000e+00" cType="1" res="-4.5631581544876099e-01" rms="2.8348216414451599e-01" purity="4.3410513550043106e-02" nType="-99"/>
            <Node pos="r" depth="3" NCoef="0" IVar="-1" Cut="0.0000000000000000e+00" cType="1" res="-5.3054070472717285e-01" rms="6.1689931899309158e-02" purity="0.0000000000000000e+00" nType="-99"/>
          </Node>
        </Node>
        <Node pos="r" depth="1" NCoef="0" IVar="2" Cut="9.3770623207092285e-02" cType="1" res="6.2474220991134644e-01" rms="2.0041665434837341e-01" purity="0.0000000000000000e+00" nType="0">
          <Node pos="l" depth="2" NCoef="0" IVar="2" Cut="2.6791293174028397e-02" cType="1" res="6.5702974796295166e-01" rms="9.7693599760532379e-02" purity="0.0000000000000000e+00" nType="0">
            <Node pos="l" depth="3" NCoef="0" IVar="-1" Cut="0.0000000000000000e+00" cType="1" res="-5.3060704469680786e-01" rms="5.6368220597505569e-02" purity="0.0000000000000000e+00" nType="-99"/>
            <Node pos="r" depth="3" NCoef="0" IVar="-1" Cut="0.0000000000000000e+00" cType="1" res="-5.2713966369628906e-01" rms="1.8749390542507172e-01" purity="0.0000000000000000e+00" nType="-99"/>
          </Node>
          <Node pos="r" depth="2" NCoef="0" IVar="-1" Cut="0.0000000000000000e+00" cType="1" res="-5.1298367977142334e-01" rms="3.8174921274185181e-01" purity="0.0000000000000000e+00" nType="-99"/>
        </Node>
      </Node>
    </BinaryTree>
    <BinaryTree type="DecisionTree" boostWeight="1.0000000000000000e+00" itree="3">
      <Node pos="s" depth="0" NCoef="0" IVar="5" Cut="1.3984370231628418e-01" cType="1" res="5.4287243634462357e-02" rms="3.1277060508728027e-01" purity="5.0000000000000000e-01" nType="0">
        <Node pos="l" depth="1" NCoef="0" IVar="9" Cut="2.3013789951801300e-01" cType="1" res="-7.0996373891830444e-02" rms="2.8892806172370911e-01" purity="2.5036492943763733e-01" nType="0">
          <Node pos="l" depth="2" NCoef="0" IVar="1" Cut="5.7465654611587524e-01" cType="1" res="2.4501094222068787e-01" rms="2.7297002077102661e-01" purity="7.9882133007049561e-01" nType="0">
            <Node pos="l" depth="3" NCoef="0" IVar="-1" Cut="0.0000000000000000e+00" cType="1" res="5.6565058231353760e-01" rms="1.7121137678623199e-01" purity="9.7496640682220459e-01" nType="-99"/>
            <Node pos="r" depth="3" NCoef="0" IVar="-1" Cut="0.0000000000000000e+00" cType="1" res="5.1669850945472717e-02" rms="3.3289188146591187e-01" purity="3.9438590407371521e-01" nType="-99"/>
          </Node>
          <Node pos="r" depth="2" NCoef="0" IVar="2" Cut="1.4019472897052765e-01" cType="1" res="-1.8627199530601501e-01" rms="1.9244219362735748e-01" purity="5.0294701009988785e-02" nType="0">
            <Node pos="l" depth="3" NCoef="0" IVar="-1" Cut="0.0000000000000000e+00" cType="1" res="-2.8692847490310669e-01" rms="2.3569300770759583e-01" purity="8.4945395588874817e-02" nType="-99"/>
            <Node pos="r" depth="3" NCoef="0" IVar="-1" Cut="0.0000000000000000e+00" cType="1" res="-3.9100492000579834e-01" rms="9.2693448066711426e-02" purity="4.6429624781012535e-03" nType="-99"/>
          </Node>
        </Node>
        <Node pos="r" depth="1" NCoef="0" IVar="0" Cut="3.2813382148742676e-01" cType="1" res="2.5597882270812988e-01" rms="2.3446249961853027e-01" purity="9.0188246965408325e-01" nType="0">
          <Node pos="l" depth="2" NCoef="0" IVar="-1" Cut="0.0000000000000000e+00" cType="1" res="3.0211237026378512e-04" rms="3.6984989047050476e-01" purity="5.2647542953491211e-01" nType="-99"/>
          <Node pos="r" depth="2" NCoef="0" IVar="2" Cut="9.3770623207092285e-02" cType="1" res="3.0823802947998047e-01" rms="1.4885817468166351e-01" purity="9.7858047485351562e-01" nType="0">
            <Node pos="l" depth="3" NCoef="0" IVar="-1" Cut="0.0000000000000000e+00" cType="1" res="5.0729286670684814e-01" rms="1.2280999124050140e-01" purity="9.8785752058029175e-01" nType="-99"/>
            <Node pos="r" depth="3" NCoef="0" IVar="-1" Cut="0.0000000000000000e+00" cType="1" res="5.3008151054382324e-01" rms="2.2628736495971680e-01" purity="9.3701350688934326e-01" nType="-99"/>
          </Node>
        </Node>
      </Node>
    </BinaryTree>
    <BinaryTree type="DecisionTree" boostWeight="1.0000000000000000e+00" itree="4">
      <Node pos="s" depth="0" NCoef="0" IVar="5" Cut="1.3984370231628418e-01" cType="1" res="5.4287243634462357e-02" rms="3.1277060508728027e-01" purity="2.5000000000000000e-01" nType="0">
        <Node pos="l" depth="1" NCoef="0" IVar="9" Cut="2.3013789951801300e-01" cType="1" res="-7.0996373891830444e-02" rms="2.8892806172370911e-01" purity="3.4434399008750916e-01" nType="0">
          <Node pos="l" depth="2" NCoef="0" IVar="1" Cut="5.7465654611587524e-01" cType="1" res="2.4501094222068787e-01" rms="2.7297002077102661e-01" purity="1.5066903084516525e-02" nType="0">
            <Node pos="l" depth="3" NCoef="0" IVar="-1" Cut="0.0000000000000000e+00" cType="1" res="-4.0955412387847900e-01" rms="1.7121137678623199e-01" purity="2.0358808338642120e-02" nType="-99"/>
            <Node pos="r" depth="3" NCoef="0" IVar="-1" Cut="0.0000000000000000e+00" cType="1" res="-5.0284504890441895e-01" rms="3.3289188146591187e-01" purity="2.9164988081902266e-03" nType="-99"/>
          </Node>
          <Node pos="r" depth="2" NCoef="0" IVar="2" Cut="1.4019472897052765e-01" cType="1" res="-1.8627199530601501e-01" rms="1.9244219362735748e-01" purity="4.6446025371551514e-01" nType="0">
            <Node pos="l" depth="3" NCoef="0" IVar="-1" Cut="0.0000000000000000e+00" cType="1" res="-4.3136438727378845e-01" rms="2.3569300770759583e-01" purity="6.1497695744037628e-02" nType="-99"/>
            <Node pos="r" depth="3" NCoef="0" IVar="-1" Cut="0.0000000000000000e+00" cType="1" res="7.9015696048736572e-01" rms="9.2693448066711426e-02" purity="9.9535703659057617e-01" nType="-99"/>
          </Node>
        </Node>
        <Node pos="r" depth="1" NCoef="0" IVar="0" Cut="3.2813382148742676e-01" cType="1" res="2.5597882270812988e-01" rms="2.3446249961853027e-01" purity="9.8117500543594360e-02" nType="0">
          <Node pos="l" depth="2" NCoef="0" IVar="-1" Cut="0.0000000000000000e+00" cType="1" res="4.1825318336486816e-01" rms="3.6984989047050476e-01" purity="4.7352454066276550e-01" nType="-99"/>
          <Node pos="r" depth="2" NCoef="0" IVar="2" Cut="9.3770623207092285e-02" cType="1" res="3.0823802947998047e-01" rms="1.4885817468166351e-01" purity="2.1419560536742210e-02" nType="0">
            <Node pos="l" depth="3" NCoef="0" IVar="-1" Cut="0.0000000000000000e+00" cType="1" res="-3.9233019948005676e-01" rms="1.2280999124050140e-01" purity="1.2142508290708065e-02" nType="-99"/>
            <Node pos="r" depth="3" NCoef="0" IVar="-1" Cut="0.0000000000000000e+00" cType="1" res="-3.3537399768829346e-01" rms="2.2628736495971680e-01" purity="6.2986470758914948e-02" nType="-99"/>
          </Node>
        </Node>
      </Node>
    </BinaryTree>
    <BinaryTree type="DecisionTree" boostWeight="1.0000000000000000e+00" itree="5">
      <Node pos="s" depth="0" NCoef="0" IVar="5" Cut="1.3984370231628418e-01" cType="1" res="5.4287243634462357e-02" rms="3.1277060508728027e-01" purity="2.5000000000000000e-01" nType="0">
        <Node pos="l" depth="1" NCoef="0" IVar="9" Cut="2.3013789951801300e-01" cType="1" res="-7.0996373891830444e-02" rms="2.8892806172370911e-01" purity="4.0529108047485352e-01" nType="0">
          <Node pos="l" depth="2" NCoef="0" IVar="1" Cut="5.7465654611587524e-01" cType="1" res="2.4501094222068787e-01" rms="2.7297002077102661e-01" purity="1.8611177802085876e-01" nType="0">
            <Node pos="l" depth="3" NCoef="0" IVar="-1" Cut="0.0000000000000000e+00" cType="1" res="-4.2683005332946777e-01" rms="1.7121137678623199e-01" purity="4.6747769229114056e-03" nType="-99"/>
            <Node pos="r" depth="3" NCoef="0" IVar="-1" Cut="0.0000000000000000e+00" cType="1" res="4.4665047526359558e-01" rms="3.3289188146591187e-01" purity="6.0269761085510254e-01" nType="-99"/>
          </Node>
          <Node pos="r" depth="2" NCoef="0" IVar="2" Cut="1.4019472897052765e-01" cType="1" res="-1.8627199530601501e-01" rms="1.9244219362735748e-01" purity="4.8524501919746399e-01" nType="0">
            <Node pos="l" depth="3" NCoef="0" IVar="-1" Cut="0.0000000000000000e+00" cType="1" res="6.2582176923751831e-01" rms="2.3569300770759583e-01" purity="8.5355693101882935e-01" nType="-99"/>
            <Node pos="r" depth="3" NCoef="0" IVar="-1" Cut="0.0000000000000000e+00" cType="1" res="-4.9606350064277649e-01" rms="9.2693448066711426e-02" purity="0.0000000000000000e+00" nType="-99"/>
          </Node>
        </Node>
        <Node pos="r" depth="1" NCoef="0" IVar="0" Cut="3.2813382148742676e-01" cType="1" res="2.5597882270812988e-01" rms="2.3446249961853027e-01" purity="0.0000000000000000e+00" nType="0">
          <Node pos="l" depth="2" NCoef="0" IVar="-1" Cut="0.0000000000000000e+00" cType="1" res="-4.4627285003662109e-01" rms="3.6984989047050476e-01" purity="0.0000000000000000e+00" nType="-99"/>
          <Node pos="r" depth="2" NCoef="0" IVar="2" Cut="9.3770623207092285e-02" cType="1" res="3.0823802947998047e-01" rms="1.4885817468166351e-01" purity="0.0000000000000000e+00" nType="0">
            <Node pos="l" depth="3" NCoef="0" IVar="-1" Cut="0.0000000000000000e+00" cType="1" res="-4.2193287611007690e-01" rms="1.2280999124050140e-01" purity="0.0000000000000000e+00" nType="-99"/>
            <Node pos="r" depth="3" NCoef="0" IVar="-1" Cut="0.0000000000000000e+00" cType="1" res="-4.3736582994461060e-01" rms="2.2628736495971680e-01" purity="0.0000000000000000e+00" nType="-99"/>
          </Node>
        </Node>
      </Node>
    </BinaryTree>
    <BinaryTree type="DecisionTree" boostWeight="1.0000000000000000e+00" itree="6">
      <Node pos="s" depth="0" NCoef="0" IVar="1" Cut="8.5828351974487305e-01" cType="1" res="2.6379631832242012e-02" rms="2.3112824559211731e-01" purity="5.0000000000000000e-01" nType="0">
        <Node pos="l" depth="1" NCoef="0" IVar="2" Cut="1.4065593481063843e-01" cType="1" res="8.0494873225688934e-02" rms="2.3711182177066803e-01" purity="6.6038018465042114e-01" nType="0">
          <Node pos="l" depth="2" NCoef="0" IVar="5" Cut="3.2630196213722229e-01" cType="1" res="1.8211536109447479e-01" rms="1.9646652042865753e-01" purity="9.4017696380615234e-01" nType="0">
            <Node pos="l" depth="3" NCoef="0" IVar="-1" Cut="0.0000000000000000e+00" cType="1" res="5.0051981210708618e-01" rms="2.6382914185523987e-01" purity="8.7521815299987793e-01" nType="-99"/>
            <Node pos="r" depth="3" NCoef="0" IVar="-1" Cut="0.0000000000000000e+00" cType="1" res="3.9701652526855469e-01" rms="1.1737281829118729e-01" purity="9.8727983236312866e-01" nType="-99"/>
          </Node>
          <Node pos="r" depth="2" NCoef="0" IVar="0" Cut="3.1028509140014648e-01" cType="1" res="-1.0036145150661469e-01" rms="1.9104509055614471e-01" purity="1.6241946816444397e-01" nType="0">
            <Node pos="l" depth="3" NCoef="0" IVar="-1" Cut="0.0000000000000000e+00" cType="1" res="-3.6991065740585327e-01" rms="1.1710435897111893e-01" purity="7.5905239209532738e-03" nType="-99"/>
            <Node pos="r" depth="3" NCoef="0" IVar="-1" Cut="0.0000000000000000e+00" cType="1" res="2.8334933519363403e-01" rms="2.5436353683471680e-01" purity="8.1802123785018921e-01" nType="-99"/>
          </Node>
        </Node>
        <Node pos="r" depth="1" NCoef="0" IVar="9" Cut="2.7032867074012756e-01" cType="1" res="-1.3936810195446014e-01" rms="9.1635562479496002e-02" purity="8.7768780067563057e-03" nType="0">
          <Node pos="l" depth="2" NCoef="0" IVar="-1" Cut="0.0000000000000000e+00" cType="1" res="-3.6670851707458496e-01" rms="1.2148344516754150e-01" purity="1.7704503610730171e-02" nType="-99"/>
          <Node pos="r" depth="2" NCoef="0" IVar="1" Cut="9.7216159105300903e-01" cType="1" res="-1.3399375975131989e-01" rms="7.5888536870479584e-02" purity="5.2167316898703575e-03" nType="0">
            <Node pos="l" depth="3" NCoef="0" IVar="-1" Cut="0.0000000000000000e+00" cType="1" res="-3.5164737701416016e-01" rms="1.1752618104219437e-01" purity="1.4062788337469101e-02" nType="-99"/>
            <Node pos="r" depth="3" NCoef="0" IVar="-1" Cut="0.0000000000000000e+00" cType="1" res="-3.8366806507110596e-01" rms="4.1475947946310043e-02" purity="8.2151591777801514e-04" nType="-99"/>
          </Node>
        </Node>
      </Node>
    </BinaryTree>
    <BinaryTree type="DecisionTree" boostWeight="1.0000000000000000e+00" itree="7">
      <Node pos="s" depth="0" NCoef="0" IVar="1" Cut="8.5828351974487305e-01" cType="1" res="2.6379631832242012e-02" rms="2.3112824559211731e-01" purity="2.5000000000000000e-01" nType="0">
        <Node pos="l" depth="1" NCoef="0" IVar="2" Cut="1.4065593481063843e-01" cType="1" res="8.0494873225688934e-02" rms="2.3711182177066803e-01" purity="3.3112949132919312e-01" nType="0">
          <Node pos="l" depth="2" NCoef="0" IVar="5" Cut="3.2630196213722229e-01" cType="1" res="1.8211536109447479e-01" rms="1.9646652042865753e-01" purity="4.6562105417251587e-02" nType="0">
            <Node pos="l" depth="3" NCoef="0" IVar="-1" Cut="0.0000000000000000e+00" cType="1" res="-1.4774481952190399e-01" rms="2.6382914185523987e-01" purity="9.3232996761798859e-02" nType="-99"/>
            <Node pos="r" depth="3" NCoef="0" IVar="-1" Cut="0.0000000000000000e+00" cType="1" res="-3.4198936820030212e-01" rms="1.1737281829118729e-01" purity="1.2720147147774696e-02" nType="-99"/>
          </Node>
          <Node pos="r" depth="2" NCoef="0" IVar="0" Cut="3.1028509140014648e-01" cType="1" res="-1.0036145150661469e-01" rms="1.9104509055614471e-01" purity="8.3758056163787842e-01" nType="0">
            <Node pos="l" depth="3" NCoef="0" IVar="-1" Cut="0.0000000000000000e+00" cType="1" res="4.6813103556632996e-01" rms="1.1710435897111893e-01" purity="9.9240952730178833e-01" nType="-99"/>
            <Node pos="r" depth="3" NCoef="0" IVar="-1" Cut="0.0000000000000000e+00" cType="1" res="-6.0753230005502701e-02" rms="2.5436353683471680e-01" purity="1.8197882175445557e-01" nType="-99"/>
          </Node>
        </Node>
        <Node pos="r" depth="1" NCoef="0" IVar="9" Cut="2.7032867074012756e-01" cType="1" res="-1.3936810195446014e-01" rms="9.1635562479496002e-02" purity="1.5112760011106730e-03" nType="0">
          <Node pos="l" depth="2" NCoef="0" IVar="-1" Cut="0.0000000000000000e+00" cType="1" res="-4.1031342744827271e-01" rms="1.2148344516754150e-01" purity="1.3266948517411947e-03" nType="-99"/>
          <Node pos="r" depth="2" NCoef="0" IVar="1" Cut="9.7216159105300903e-01" cType="1" res="-1.3399375975131989e-01" rms="7.5888536870479584e-02" purity="1.5848829643800855e-03" nType="0">
            <Node pos="l" depth="3" NCoef="0" IVar="-1" Cut="0.0000000000000000e+00" cType="1" res="-4.0363088250160217e-01" rms="1.1752618104219437e-01" purity="4.6298103407025337e-03" nType="-99"/>
            <Node pos="r" depth="3" NCoef="0" IVar="-1" Cut="0.0000000000000000e+00" cType="1" res="-4.1259565949440002e-01" rms="4.1475947946310043e-02" purity="7.1993024903349578e-05" nType="-99"/>
          </Node>
        </Node>
      </Node>
    </BinaryTree>
    <BinaryTree type="DecisionTree" boostWeight="1.0000000000000000e+00" itree="8">
      <Node pos="s" depth="0" NCoef="0" IVar="1" Cut="8.5828351974487305e-01" cType="1" res="2.6379631832242012e-02" rms="2.3112824559211731e-01" purity="2.5000000000000000e-01" nType="0">
        <Node pos="l" depth="1" NCoef="0" IVar="2" Cut="1.4065593481063843e-01" cType="1" res="8.0494873225688934e-02" rms="2.3711182177066803e-01" purity="8.4903296083211899e-03" nType="0">
          <Node pos="l" depth="2" NCoef="0" IVar="5" Cut="3.2630196213722229e-01" cType="1" res="1.8211536109447479e-01" rms="1.9646652042865753e-01" purity="1.3260919600725174e-02" nType="0">
            <Node pos="l" depth="3" NCoef="0" IVar="-1" Cut="0.0000000000000000e+00" cType="1" res="-4.8986324667930603e-01" rms="2.6382914185523987e-01" purity="3.1548835337162018e-02" nType="-99"/>
            <Node pos="r" depth="3" NCoef="0" IVar="-1" Cut="0.0000000000000000e+00" cType="1" res="-3.8102686405181885e-01" rms="1.1737281829118729e-01" purity="0.0000000000000000e+00" nType="-99"/>
          </Node>
          <Node pos="r" depth="2" NCoef="0" IVar="0" Cut="3.1028509140014648e-01" cType="1" res="-1.0036145150661469e-01" rms="1.9104509055614471e-01" purity="0.0000000000000000e+00" nType="0">
            <Node pos="l" depth="3" NCoef="0" IVar="-1" Cut="0.0000000000000000e+00" cType="1" res="-3.7262111902236938e-01" rms="1.1710435897111893e-01" purity="0.0000000000000000e+00" nType="-99"/>
            <Node pos="r" depth="3" NCoef="0" IVar="-1" Cut="0.0000000000000000e+00" cType="1" res="-3.9235883951187134e-01" rms="2.5436353683471680e-01" purity="0.0000000000000000e+00" nType="-99"/>
          </Node>
        </Node>
        <Node pos="r" depth="1" NCoef="0" IVar="9" Cut="2.7032867074012756e-01" cType="1" res="-1.3936810195446014e-01" rms="9.1635562479496002e-02" purity="9.8971188068389893e-01" nType="0">
          <Node pos="l" depth="2" NCoef="0" IVar="-1" Cut="0.0000000000000000e+00" cType="1" res="5.0395524501800537e-01" rms="1.2148344516754150e-01" purity="9.8096883296966553e-01" nType="-99"/>
          <Node pos="r" depth="2" NCoef="0" IVar="1" Cut="9.7216159105300903e-01" cType="1" res="-1.3399375975131989e-01" rms="7.5888536870479584e-02" purity="9.9319839477539062e-01" nType="0">
            <Node pos="l" depth="3" NCoef="0" IVar="-1" Cut="0.0000000000000000e+00" cType="1" res="4.7729042172431946e-01" rms="1.1752618104219437e-01" purity="9.8130744695663452e-01" nType="-99"/>
            <Node pos="r" depth="3" NCoef="0" IVar="-1" Cut="0.0000000000000000e+00" cType="1" res="4.9903988838195801e-01" rms="4.1475947946310043e-02" purity="9.9910646677017212e-01" nType="-99"/>
          </Node>
        </Node>
      </Node>
    </BinaryTree>
    <BinaryTree type="DecisionTree" boostWeight="1.0000000000000000e+00" itree="9">
      <Node pos="s" depth="0" NCoef="0" IVar="1" Cut="9.1521894931793213e-01" cType="1" res="9.4871344044804573e-03" rms="1.7375646531581879e-01" purity="5.0000000000000000e-01" nType="0">
        <Node pos="l" depth="1" NCoef="0" IVar="2" Cut="9.3770623207092285e-02" cType="1" res="3.5414833575487137e-02" rms="1.8797151744365692e-01" purity="6.5388333797454834e-01" nType="0">
          <Node pos="l" depth="2" NCoef="0" IVar="6" Cut="9.0911922454833984e+00" cType="1" res="9.1823942959308624e-02" rms="1.7815819382667542e-01" purity="9.3560266494750977e-01" nType="0">
            <Node pos="l" depth="3" NCoef="0" IVar="-1" Cut="0.0000000000000000e+00" cType="1" res="2.1541012823581696e-01" rms="2.1577933430671692e-01" purity="8.8392215967178345e-01" nType="-99"/>
            <Node pos="r" depth="3" NCoef="0" IVar="-1" Cut="0.0000000000000000e+00" cType="1" res="4.0005081892013550e-01" rms="1.5351435542106628e-01" purity="9.6169096231460571e-01" nType="-99"/>
          </Node>
          <Node pos="r" depth="2" NCoef="0" IVar="0" Cut="4.5664149522781372e-01" cType="1" res="-5.4566718637943268e-02" rms="1.6700945794582367e-01" purity="2.0449590682983398e-01" nType="0">
            <Node pos="l" depth="3" NCoef="0" IVar="-1" Cut="0.0000000000000000e+00" cType="1" res="-3.2621705532073975e-01" rms="1.3110464811325073e-01" purity="3.5165805369615555e-02" nType="-99"/>
            <Node pos="r" depth="3" NCoef="0" IVar="-1" Cut="0.0000000000000000e+00" cType="1" res="2.9118072986602783e-01" rms="2.0448310673236847e-01" purity="9.1886556148529053e-01" nType="-99"/>
          </Node>
        </Node>
        <Node pos="r" depth="1" NCoef="0" IVar="9" Cut="2.5731012225151062e-01" cType="1" res="-7.4019066989421844e-02" rms="6.7022047936916351e-02" purity="4.3828473426401615e-03" nType="0">
          <Node pos="l" depth="2" NCoef="0" IVar="-1" Cut="0.0000000000000000e+00" cType="1" res="-3.3621582388877869e-01" rms="9.0673498809337616e-02" purity="9.1260438784956932e-03" nType="-99"/>
          <Node pos="r" depth="2" NCoef="0" IVar="1" Cut="9.8300147056579590e-01" cType="1" res="-7.0335380733013153e-02" rms="5.7722672820091248e-02" purity="2.9833263251930475e-03" nType="0">
            <Node pos="l" depth="3" NCoef="0" IVar="-1" Cut="0.0000000000000000e+00" cType="1" res="-3.3393824100494385e-01" rms="7.5109243392944336e-02" purity="5.4444884881377220e-03" nType="-99"/>
            <Node pos="r" depth="3" NCoef="0" IVar="-1" Cut="0.0000000000000000e+00" cType="1" res="-3.5532400012016296e-01" rms="3.3111989498138428e-02" purity="6.0409691650420427e-04" nType="-99"/>
          </Node>
        </Node>
      </Node>
    </BinaryTree>
    <BinaryTree type="DecisionTree" boostWeight="1.0000000000000000e+00" itree="10">
      <Node pos="s" depth="0" NCoef="0" IVar="1" Cut="9.1521894931793213e-01" cType="1" res="9.4871344044804573e-03" rms="1.7375646531581879e-01" purity="2.5000000000000000e-01" nType="0">
        <Node pos="l" depth="1" NCoef="0" IVar="2" Cut="9.3770623207092285e-02" cType="1" res="3.5414833575487137e-02" rms="1.8797151744365692e-01" purity="3.2744249701499939e-01" nType="0">
          <Node pos="l" depth="2" NCoef="0" IVar="6" Cut="9.0911922454833984e+00" cType="1" res="9.1823942959308624e-02" rms="1.7815819382667542e-01" purity="3.4016378223896027e-02" nType="0">
            <Node pos="l" depth="3" NCoef="0" IVar="-1" Cut="0.0000000000000000e+00" cType="1" res="4.9295306205749512e-02" rms="2.1577933430671692e-01" purity="8.7072007358074188e-02" nType="-99"/>
            <Node pos="r" depth="3" NCoef="0" IVar="-1" Cut="0.0000000000000000e+00" cType="1" res="-3.5780915617942810e-01" rms="1.5351435542106628e-01" purity="7.2340364567935467e-03" nType="-99"/>
          </Node>
          <Node pos="r" depth="2" NCoef="0" IVar="0" Cut="4.5664149522781372e-01" cType="1" res="-5.4566718637943268e-02" rms="1.6700945794582367e-01" purity="7.9550409317016602e-01" nType="0">
            <Node pos="l" depth="3" NCoef="0" IVar="-1" Cut="0.0000000000000000e+00" cType="1" res="3.9599218964576721e-01" rms="1.3110464811325073e-01" purity="9.6483415365219116e-01" nType="-99"/>
            <Node pos="r" depth="3" NCoef="0" IVar="-1" Cut="0.0000000000000000e+00" cType="1" res="-1.6146366298198700e-01" rms="2.0448310673236847e-01" purity="8.1134453415870667e-02" nType="-99"/>
          </Node>
        </Node>
        <Node pos="r" depth="1" NCoef="0" IVar="9" Cut="2.5731012225151062e-01" cType="1" res="-7.4019066989421844e-02" rms="6.7022047936916351e-02" purity="5.7833077153190970e-04" nType="0">
          <Node pos="l" depth="2" NCoef="0" IVar="-1" Cut="0.0000000000000000e+00" cType="1" res="-3.6618316173553467e-01" rms="9.0673498809337616e-02" purity="5.3754029795527458e-04" nType="-99"/>
          <Node pos="r" depth="2" NCoef="0" IVar="1" Cut="9.8300147056579590e-01" cType="1" res="-7.0335380733013153e-02" rms="5.7722672820091248e-02" purity="5.9036648599430919e-04" nType="0">
            <Node pos="l" depth="3" NCoef="0" IVar="-1" Cut="0.0000000000000000e+00" cType="1" res="-3.6344066262245178e-01" rms="7.5109243392944336e-02" purity="1.1607289779931307e-03" nType="-99"/>
            <Node pos="r" depth="3" NCoef="0" IVar="-1" Cut="0.0000000000000000e+00" cType="1" res="-3.6674168705940247e-01" rms="3.3111989498138428e-02" purity="3.8991471228655428e-05" nType="-99"/>
          </Node>
        </Node>
      </Node>
    </BinaryTree>
    <BinaryTree type="DecisionTree" boostWeight="1.0000000000000000e+00" itree="11">
      <Node pos="s" depth="0" NCoef="0" IVar="1" Cut="9.1521894931793213e-01" cType="1" res="9.4871344044804573e-03" rms="1.7375646531581879e-01" purity="2.5000000000000000e-01" nType="0">
        <Node pos="l" depth="1" NCoef="0" IVar="2" Cut="9.3770623207092285e-02" cType="1" res="3.5414833575487137e-02" rms="1.8797151744365692e-01" purity="1.8674159422516823e-02" nType="0">
          <Node pos="l" depth="2" NCoef="0" IVar="6" Cut="9.0911922454833984e+00" cType="1" res="9.1823942959308624e-02" rms="1.7815819382667542e-01" purity="3.0380923300981522e-02" nType="0">
            <Node pos="l" depth="3" NCoef="0" IVar="-1" Cut="0.0000000000000000e+00" cType="1" res="-3.7903863191604614e-01" rms="2.1577933430671692e-01" purity="2.9005872085690498e-02" nType="-99"/>
            <Node pos="r" depth="3" NCoef="0" IVar="-1" Cut="0.0000000000000000e+00" cType="1" res="-3.0295422673225403e-01" rms="1.5351435542106628e-01" purity="3.1075049191713333e-02" nType="-99"/>
          </Node>
          <Node pos="r" depth="2" NCoef="0" IVar="0" Cut="4.5664149522781372e-01" cType="1" res="-5.4566718637943268e-02" rms="1.6700945794582367e-01" purity="0.0000000000000000e+00" nType="0">
            <Node pos="l" depth="3" NCoef="0" IVar="-1" Cut="0.0000000000000000e+00" cType="1" res="-3.4669730067253113e-01" rms="1.3110464811325073e-01" purity="0.0000000000000000e+00" nType="-99"/>
            <Node pos="r" depth="3" NCoef="0" IVar="-1" Cut="0.0000000000000000e+00" cType="1" res="-3.8309749960899353e-01" rms="2.0448310673236847e-01" purity="0.0000000000000000e+00" nType="-99"/>
          </Node>
        </Node>
        <Node pos="r" depth="1" NCoef="0" IVar="9" Cut="2.5731012225151062e-01" cType="1" res="-7.4019066989421844e-02" rms="6.7022047936916351e-02" purity="9.9503886699676514e-01" nType="0">
          <Node pos="l" depth="2" NCoef="0" IVar="-1" Cut="0.0000000000000000e+00" cType="1" res="3.9573624730110168e-01" rms="9.0673498809337616e-02" purity="9.9033641815185547e-01" nType="-99"/>
          <Node pos="r" depth="2" NCoef="0" IVar="1" Cut="9.8300147056579590e-01" cType="1" res="-7.0335380733013153e-02" rms="5.7722672820091248e-02" purity="9.9642628431320190e-01" nType="0">
            <Node pos="l" depth="3" NCoef="0" IVar="-1" Cut="0.0000000000000000e+00" cType="1" res="3.8765835762023926e-01" rms="7.5109243392944336e-02" purity="9.9339479207992554e-01" nType="-99"/>
            <Node pos="r" depth="3" NCoef="0" IVar="-1" Cut="0.0000000000000000e+00" cType="1" res="3.9862608909606934e-01" rms="3.3111989498138428e-02" purity="9.9935692548751831e-01" nType="-99"/>
          </Node>
        </Node>
      </Node>
    </BinaryTree>
    <BinaryTree type="DecisionTree" boostWeight="1.0000000000000000e+00" itree="12">
      <Node pos="s" depth="0" NCoef="0" IVar="6" Cut="1.0101493835449219e+01" cType="1" res="2.7503573801368475e-03" rms="1.4925205707550049e-01" purity="5.0000000000000000e-01" nType="0">
        <Node pos="l" depth="1" NCoef="0" IVar="5" Cut="5.5937480926513672e-01" cType="1" res="-1.7241621389985085e-02" rms="1.5772478282451630e-01" purity="3.3092874288558960e-01" nType="0">
          <Node pos="l" depth="2" NCoef="0" IVar="2" Cut="4.6748865395784378e-02" cType="1" res="-3.9869207888841629e-02" rms="1.5864737331867218e-01" purity="9.7488127648830414e-02" nType="0">
            <Node pos="l" depth="3" NCoef="0" IVar="-1" Cut="0.0000000000000000e+00" cType="1" res="-1.1452460289001465e-01" rms="1.7932750284671783e-01" purity="1.4587913453578949e-01" nType="-99"/>
            <Node pos="r" depth="3" NCoef="0" IVar="-1" Cut="0.0000000000000000e+00" cType="1" res="-2.8254154324531555e-01" rms="1.3579161465167999e-01" purity="5.3923934698104858e-02" nType="-99"/>
          </Node>
          <Node pos="r" depth="2" NCoef="0" IVar="8" Cut="-9.7217565774917603e-01" cType="1" res="4.4934812933206558e-02" rms="1.3712134957313538e-01" purity="9.7238045930862427e-01" nType="0">
            <Node pos="l" depth="3" NCoef="0" IVar="-1" Cut="0.0000000000000000e+00" cType="1" res="3.6265125870704651e-01" rms="5.9934291988611221e-02" purity="9.9701917171478271e-01" nType="-99"/>
            <Node pos="r" depth="3" NCoef="0" IVar="-1" Cut="0.0000000000000000e+00" cType="1" res="1.8607357144355774e-01" rms="1.7472690343856812e-01" purity="9.5306259393692017e-01" nType="-99"/>
          </Node>
        </Node>
        <Node pos="r" depth="1" NCoef="0" IVar="1" Cut="9.1542029380798340e-01" cType="1" res="3.7400834262371063e-02" rms="1.2599526345729828e-01" purity="7.9303753376007080e-01" nType="0">
          <Node pos="l" depth="2" NCoef="0" IVar="6" Cut="1.1159746170043945e+01" cType="1" res="5.3553510457277298e-02" rms="1.2639339268207550e-01" purity="9.7051221132278442e-01" nType="0">
            <Node pos="l" depth="3" NCoef="0" IVar="-1" Cut="0.0000000000000000e+00" cType="1" res="3.5000568628311157e-01" rms="2.1666291356086731e-01" purity="9.1573828458786011e-01" nType="-99"/>
            <Node pos="r" depth="3" NCoef="0" IVar="-1" Cut="0.0000000000000000e+00" cType="1" res="3.0537784099578857e-01" rms="8.7601847946643829e-02" purity="9.8375922441482544e-01" nType="-99"/>
          </Node>
          <Node pos="r" depth="2" NCoef="0" IVar="-1" Cut="0.0000000000000000e+00" cType="1" res="-2.7522623538970947e-01" rms="9.5910929143428802e-02" purity="9.8421843722462654e-03" nType="-99"/>
        </Node>
      </Node>
    </BinaryTree>
    <BinaryTree type="DecisionTree" boostWeight="1.0000000000000000e+00" itree="13">
      <Node pos="s" depth="0" NCoef="0" IVar="6" Cut="1.0101493835449219e+01" cType="1" res="2.7503573801368475e-03" rms="1.4925205707550049e-01" purity="2.5000000000000000e-01" nType="0">
        <Node pos="l" depth="1" NCoef="0" IVar="5" Cut="5.5937480926513672e-01" cType="1" res="-1.7241621389985085e-02" rms="1.5772478282451630e-01" purity="3.8788065314292908e-01" nType="0">
          <Node pos="l" depth="2" NCoef="0" IVar="2" Cut="4.6748865395784378e-02" cType="1" res="-3.9869207888841629e-02" rms="1.5864737331867218e-01" purity="5.1898878812789917e-01" nType="0">
            <Node pos="l" depth="3" NCoef="0" IVar="-1" Cut="0.0000000000000000e+00" cType="1" res="-1.6111624240875244e-01" rms="1.7932750284671783e-01" purity="4.4581227004528046e-02" nType="-99"/>
            <Node pos="r" depth="3" NCoef="0" IVar="-1" Cut="0.0000000000000000e+00" cType="1" res="3.6715409159660339e-01" rms="1.3579161465167999e-01" purity="9.4607603549957275e-01" nType="-99"/>
          </Node>
          <Node pos="r" depth="2" NCoef="0" IVar="8" Cut="-9.7217565774917603e-01" cType="1" res="4.4934812933206558e-02" rms="1.3712134957313538e-01" purity="2.7619572356343269e-02" nType="0">
            <Node pos="l" depth="3" NCoef="0" IVar="-1" Cut="0.0000000000000000e+00" cType="1" res="-3.4619253873825073e-01" rms="5.9934291988611221e-02" purity="2.9808317776769400e-03" nType="-99"/>
            <Node pos="r" depth="3" NCoef="0" IVar="-1" Cut="0.0000000000000000e+00" cType="1" res="-9.2278815805912018e-02" rms="1.7472690343856812e-01" purity="4.6937357634305954e-02" nType="-99"/>
          </Node>
        </Node>
        <Node pos="r" depth="1" NCoef="0" IVar="1" Cut="9.1542029380798340e-01" cType="1" res="3.7400834262371063e-02" rms="1.2599526345729828e-01" purity="1.1022696271538734e-02" nType="0">
          <Node pos="l" depth="2" NCoef="0" IVar="6" Cut="1.1159746170043945e+01" cType="1" res="5.3553510457277298e-02" rms="1.2639339268207550e-01" purity="1.3447515666484833e-02" nType="0">
            <Node pos="l" depth="3" NCoef="0" IVar="-1" Cut="0.0000000000000000e+00" cType="1" res="-3.6475268006324768e-01" rms="2.1666291356086731e-01" purity="1.7281679436564445e-02" nType="-99"/>
            <Node pos="r" depth="3" NCoef="0" IVar="-1" Cut="0.0000000000000000e+00" cType="1" res="-2.7876341342926025e-01" rms="8.7601847946643829e-02" purity="1.2520227581262589e-02" nType="-99"/>
          </Node>
          <Node pos="r" depth="2" NCoef="0" IVar="-1" Cut="0.0000000000000000e+00" cType="1" res="-3.4619709849357605e-01" rms="9.5910929143428802e-02" purity="3.2197011751122773e-04" nType="-99"/>
        </Node>
      </Node>
    </BinaryTree>
    <BinaryTree type="DecisionTree" boostWeight="1.0000000000000000e+00" itree="14">
      <Node pos="s" depth="0" NCoef="0" IVar="6" Cut="1.0101493835449219e+01" cType="1" res="2.7503573801368475e-03" rms="1.4925205707550049e-01" purity="2.5000000000000000e-01" nType="0">
        <Node pos="l" depth="1" NCoef="0" IVar="5" Cut="5.5937480926513672e-01" cType="1" res="-1.7241621389985085e-02" rms="1.5772478282451630e-01" purity="2.8119066357612610e-01" nType="0">
          <Node pos="l" depth="2" NCoef="0" IVar="2" Cut="4.6748865395784378e-02" cType="1" res="-3.9869207888841629e-02" rms="1.5864737331867218e-01" purity="3.8352307677268982e-01" nType="0">
            <Node pos="l" depth="3" NCoef="0" IVar="-1" Cut="0.0000000000000000e+00" cType="1" res="1.9697713851928711e-01" rms="1.7932750284671783e-01" purity="8.0953961610794067e-01" nType="-99"/>
            <Node pos="r" depth="3" NCoef="0" IVar="-1" Cut="0.0000000000000000e+00" cType="1" res="-3.3976715803146362e-01" rms="1.3579161465167999e-01" purity="0.0000000000000000e+00" nType="-99"/>
          </Node>
          <Node pos="r" depth="2" NCoef="0" IVar="8" Cut="-9.7217565774917603e-01" cType="1" res="4.4934812933206558e-02" rms="1.3712134957313538e-01" purity="0.0000000000000000e+00" nType="0">
            <Node pos="l" depth="3" NCoef="0" IVar="-1" Cut="0.0000000000000000e+00" cType="1" res="-3.6129820346832275e-01" rms="5.9934291988611221e-02" purity="0.0000000000000000e+00" nType="-99"/>
            <Node pos="r" depth="3" NCoef="0" IVar="-1" Cut="0.0000000000000000e+00" cType="1" res="-3.5781896114349365e-01" rms="1.7472690343856812e-01" purity="0.0000000000000000e+00" nType="-99"/>
          </Node>
        </Node>
        <Node pos="r" depth="1" NCoef="0" IVar="1" Cut="9.1542029380798340e-01" cType="1" res="3.7400834262371063e-02" rms="1.2599526345729828e-01" purity="1.9593976438045502e-01" nType="0">
          <Node pos="l" depth="2" NCoef="0" IVar="6" Cut="1.1159746170043945e+01" cType="1" res="5.3553510457277298e-02" rms="1.2639339268207550e-01" purity="1.6040284186601639e-02" nType="0">
            <Node pos="l" depth="3" NCoef="0" IVar="-1" Cut="0.0000000000000000e+00" cType="1" res="-1.9097107648849487e-01" rms="2.1666291356086731e-01" purity="6.6979989409446716e-02" nType="-99"/>
            <Node pos="r" depth="3" NCoef="0" IVar="-1" Cut="0.0000000000000000e+00" cType="1" res="-3.0704686045646667e-01" rms="8.7601847946643829e-02" purity="3.7205524276942015e-03" nType="-99"/>
          </Node>
          <Node pos="r" depth="2" NCoef="0" IVar="-1" Cut="0.0000000000000000e+00" cType="1" res="3.3089551329612732e-01" rms="9.5910929143428802e-02" purity="9.8983585834503174e-01" nType="-99"/>
        </Node>
      </Node>
    </BinaryTree>
    <BinaryTree type="DecisionTree" boostWeight="1.0000000000000000e+00" itree="15">
      <Node pos="s" depth="0" NCoef="0" IVar="5" Cut="9.3229137361049652e-02" cType="1" res="7.6668791007250547e-04" rms="1.4080917835235596e-01" purity="5.0000000000000000e-01" nType="0">
        <Node pos="l" depth="1" NCoef="0" IVar="12" Cut="1.0541680908203125e+02" cType="1" res="-1.4216477051377296e-02" rms="1.3443887233734131e-01" purity="2.4393787980079651e-01" nType="0">
          <Node pos="l" depth="2" NCoef="0" IVar="11" Cut="9.1043128967285156e+00" cType="1" res="-2.5361647829413414e-02" rms="1.3232672214508057e-01" purity="1.2497765570878983e-01" nType="0">
            <Node pos="l" depth="3" NCoef="0" IVar="-1" Cut="0.0000000000000000e+00" cType="1" res="-2.7786734700202942e-01" rms="1.1273194104433060e-01" purity="5.3447533398866653e-02" nType="-99"/>
            <Node pos="r" depth="3" NCoef="0" IVar="-1" Cut="0.0000000000000000e+00" cType="1" res="-4.0133174508810043e-02" rms="1.7991633713245392e-01" purity="3.5317832231521606e-01" nType="-99"/>
          </Node>
          <Node pos="r" depth="2" NCoef="0" IVar="4" Cut="9.0448105335235596e-01" cType="1" res="3.4987710416316986e-02" rms="1.3263449072837830e-01" purity="7.6912862062454224e-01" nType="0">
            <Node pos="l" depth="3" NCoef="0" IVar="-1" Cut="0.0000000000000000e+00" cType="1" res="1.1810949444770813e-01" rms="1.5303750336170197e-01" purity="5.3978204727172852e-01" nType="-99"/>
            <Node pos="r" depth="3" NCoef="0" IVar="-1" Cut="0.0000000000000000e+00" cType="1" res="4.0184926986694336e-01" rms="1.0645706951618195e-01" purity="9.9254047870635986e-01" nType="-99"/>
          </Node>
        </Node>
        <Node pos="r" depth="1" NCoef="0" IVar="2" Cut="2.8131186962127686e-01" cType="1" res="2.2398395463824272e-02" rms="1.4685587584972382e-01" purity="8.6968570947647095e-01" nType="0">
          <Node pos="l" depth="2" NCoef="0" IVar="5" Cut="3.4627982974052429e-01" cType="1" res="2.9771381989121437e-02" rms="1.3715350627899170e-01" purity="9.4835364818572998e-01" nType="0">
            <Node pos="l" depth="3" NCoef="0" IVar="-1" Cut="0.0000000000000000e+00" cType="1" res="2.6869145035743713e-01" rms="2.2354160249233246e-01" purity="7.7218174934387207e-01" nType="-99"/>
            <Node pos="r" depth="3" NCoef="0" IVar="-1" Cut="0.0000000000000000e+00" cType="1" res="2.2651235759258270e-01" rms="1.1312220990657806e-01" purity="9.8063921928405762e-01" nType="-99"/>
          </Node>
          <Node pos="r" depth="2" NCoef="0" IVar="-1" Cut="0.0000000000000000e+00" cType="1" res="-1.0328551381826401e-01" rms="1.9041652977466583e-01" purity="3.8062548637390137e-01" nType="-99"/>
        </Node>
      </Node>
    </BinaryTree>
    <BinaryTree type="DecisionTree" boostWeight="1.0000000000000000e+00" itree="16">
      <Node pos="s" depth="0" NCoef="0" IVar="5" Cut="9.3229137361049652e-02" cType="1" res="7.6668791007250547e-04" rms="1.4080917835235596e-01" purity="2.5000000000000000e-01" nType="0">
        <Node pos="l" depth="1" NCoef="0" IVar="12" Cut="1.0541680908203125e+02" cType="1" res="-1.4216477051377296e-02" rms="1.3443887233734131e-01" purity="3.3290007710456848e-01" nType="0">
          <Node pos="l" depth="2" NCoef="0" IVar="11" Cut="9.1043128967285156e+00" cType="1" res="-2.5361647829413414e-02" rms="1.3232672214508057e-01" purity="3.5601043701171875e-01" nType="0">
            <Node pos="l" depth="3" NCoef="0" IVar="-1" Cut="0.0000000000000000e+00" cType="1" res="7.0168338716030121e-02" rms="1.1273194104433060e-01" purity="3.6752641201019287e-01" nType="-99"/>
            <Node pos="r" depth="3" NCoef="0" IVar="-1" Cut="0.0000000000000000e+00" cType="1" res="1.5130081772804260e-01" rms="1.7991633713245392e-01" purity="3.1927126646041870e-01" nType="-99"/>
          </Node>
          <Node pos="r" depth="2" NCoef="0" IVar="4" Cut="9.0448105335235596e-01" cType="1" res="3.4987710416316986e-02" rms="1.3263449072837830e-01" purity="2.3087130486965179e-01" nType="0">
            <Node pos="l" depth="3" NCoef="0" IVar="-1" Cut="0.0000000000000000e+00" cType="1" res="5.7971224188804626e-02" rms="1.5303750336170197e-01" purity="4.6021798253059387e-01" nType="-99"/>
            <Node pos="r" depth="3" NCoef="0" IVar="-1" Cut="0.0000000000000000e+00" cType="1" res="-2.8547325730323792e-01" rms="1.0645706951618195e-01" purity="7.4595385231077671e-03" nType="-99"/>
          </Node>
        </Node>
        <Node pos="r" depth="1" NCoef="0" IVar="2" Cut="2.8131186962127686e-01" cType="1" res="2.2398395463824272e-02" rms="1.4685587584972382e-01" purity="1.3031435012817383e-01" nType="0">
          <Node pos="l" depth="2" NCoef="0" IVar="5" Cut="3.4627982974052429e-01" cType="1" res="2.9771381989121437e-02" rms="1.3715350627899170e-01" purity="5.1646366715431213e-02" nType="0">
            <Node pos="l" depth="3" NCoef="0" IVar="-1" Cut="0.0000000000000000e+00" cType="1" res="-6.1421483755111694e-02" rms="2.2354160249233246e-01" purity="2.2781831026077271e-01" nType="-99"/>
            <Node pos="r" depth="3" NCoef="0" IVar="-1" Cut="0.0000000000000000e+00" cType="1" res="-1.5136294066905975e-01" rms="1.1312220990657806e-01" purity="1.9360776990652084e-02" nType="-99"/>
          </Node>
          <Node pos="r" depth="2" NCoef="0" IVar="-1" Cut="0.0000000000000000e+00" cType="1" res="2.0067679882049561e-01" rms="1.9041652977466583e-01" purity="6.1937451362609863e-01" nType="-99"/>
        </Node>
      </Node>
    </BinaryTree>
    <BinaryTree type="DecisionTree" boostWeight="1.0000000000000000e+00" itree="17">
      <Node pos="s" depth="0" NCoef="0" IVar="5" Cut="9.3229137361049652e-02" cType="1" res="7.6668791007250547e-04" rms="1.4080917835235596e-01" purity="2.5000000000000000e-01" nType="0">
        <Node pos="l" depth="1" NCoef="0" IVar="12" Cut="1.0541680908203125e+02" cType="1" res="-1.4216477051377296e-02" rms="1.3443887233734131e-01" purity="4.2316210269927979e-01" nType="0">
          <Node pos="l" depth="2" NCoef="0" IVar="11" Cut="9.1043128967285156e+00" cType="1" res="-2.5361647829413414e-02" rms="1.3232672214508057e-01" purity="5.1901197433471680e-01" nType="0">
            <Node pos="l" depth="3" NCoef="0" IVar="-1" Cut="0.0000000000000000e+00" cType="1" res="1.1910535395145416e-01" rms="1.1273194104433060e-01" purity="5.7902604341506958e-01" nType="-99"/>
            <Node pos="r" depth="3" NCoef="0" IVar="-1" Cut="0.0000000000000000e+00" cType="1" res="-8.9118443429470062e-02" rms="1.7991633713245392e-01" purity="3.2755041122436523e-01" nType="-99"/>
          </Node>
          <Node pos="r" depth="2" NCoef="0" IVar="4" Cut="9.0448105335235596e-01" cType="1" res="3.4987710416316986e-02" rms="1.3263449072837830e-01" purity="0.0000000000000000e+00" nType="0">
            <Node pos="l" depth="3" NCoef="0" IVar="-1" Cut="0.0000000000000000e+00" cType="1" res="-3.7006855010986328e-01" rms="1.5303750336170197e-01" purity="0.0000000000000000e+00" nType="-99"/>
            <Node pos="r" depth="3" NCoef="0" IVar="-1" Cut="0.0000000000000000e+00" cType="1" res="-4.2813768982887268e-01" rms="1.0645706951618195e-01" purity="0.0000000000000000e+00" nType="-99"/>
          </Node>
        </Node>
        <Node pos="r" depth="1" NCoef="0" IVar="2" Cut="2.8131186962127686e-01" cType="1" res="2.2398395463824272e-02" rms="1.4685587584972382e-01" purity="0.0000000000000000e+00" nType="0">
          <Node pos="l" depth="2" NCoef="0" IVar="5" Cut="3.4627982974052429e-01" cType="1" res="2.9771381989121437e-02" rms="1.3715350627899170e-01" purity="0.0000000000000000e+00" nType="0">
            <Node pos="l" depth="3" NCoef="0" IVar="-1" Cut="0.0000000000000000e+00" cType="1" res="-4.1200423240661621e-01" rms="2.2354160249233246e-01" purity="0.0000000000000000e+00" nType="-99"/>
            <Node pos="r" depth="3" NCoef="0" IVar="-1" Cut="0.0000000000000000e+00" cType="1" res="-3.5680851340293884e-01" rms="1.1312220990657806e-01" purity="0.0000000000000000e+00" nType="-99"/>
          </Node>
          <Node pos="r" depth="2" NCoef="0" IVar="-1" Cut="0.0000000000000000e+00" cType="1" res="-3.2238987088203430e-01" rms="1.9041652977466583e-01" purity="0.0000000000000000e+00" nType="-99"/>
        </Node>
      </Node>
    </BinaryTree>
    <BinaryTree type="DecisionTree" boostWeight="1.0000000000000000e+00" itree="18">
      <Node pos="s" depth="0" NCoef="0" IVar="9" Cut="2.8716599941253662e-01" cType="1" res="-1.1206956114619970e-03" rms="1.3523930311203003e-01" purity="5.0000000000000000e-01" nType="0">
        <Node pos="l" depth="1" NCoef="0" IVar="1" Cut="8.0164951086044312e-01" cType="1" res="1.4975484460592270e-02" rms="1.2114568799734116e-01" purity="7.6239603757858276e-01" nType="0">
          <Node pos="l" depth="2" NCoef="0" IVar="6" Cut="1.1111456871032715e+01" cType="1" res="2.4225758388638496e-02" rms="1.2029612809419632e-01" purity="9.7059243917465210e-01" nType="0">
            <Node pos="l" depth="3" NCoef="0" IVar="-1" Cut="0.0000000000000000e+00" cType="1" res="2.3646987974643707e-01" rms="1.9912976026535034e-01" purity="9.0510773658752441e-01" nType="-99"/>
            <Node pos="r" depth="3" NCoef="0" IVar="-1" Cut="0.0000000000000000e+00" cType="1" res="2.7152657508850098e-01" rms="7.3190376162528992e-02" purity="9.9360120296478271e-01" nType="-99"/>
          </Node>
          <Node pos="r" depth="2" NCoef="0" IVar="-1" Cut="0.0000000000000000e+00" cType="1" res="-1.8758353590965271e-01" rms="1.1846686154603958e-01" purity="2.8471972793340683e-02" nType="-99"/>
        </Node>
        <Node pos="r" depth="1" NCoef="0" IVar="4" Cut="5.1362261176109314e-02" cType="1" res="-1.2106178328394890e-02" rms="1.4303240180015564e-01" purity="3.2091730833053589e-01" nType="0">
          <Node pos="l" depth="2" NCoef="0" IVar="0" Cut="8.2309556007385254e-01" cType="1" res="1.7234086990356445e-02" rms="1.9225117564201355e-01" purity="9.2219668626785278e-01" nType="0">
            <Node pos="l" depth="3" NCoef="0" IVar="-1" Cut="0.0000000000000000e+00" cType="1" res="-9.0162009000778198e-02" rms="2.1456608176231384e-01" purity="8.6955046653747559e-01" nType="-99"/>
            <Node pos="r" depth="3" NCoef="0" IVar="-1" Cut="0.0000000000000000e+00" cType="1" res="2.4149499833583832e-01" rms="1.7407093942165375e-01" purity="9.5546114444732666e-01" nType="-99"/>
          </Node>
          <Node pos="r" depth="2" NCoef="0" IVar="2" Cut="4.5036755502223969e-02" cType="1" res="-2.0829441025853157e-02" rms="1.2336890399456024e-01" purity="1.4214874804019928e-01" nType="0">
            <Node pos="l" depth="3" NCoef="0" IVar="-1" Cut="0.0000000000000000e+00" cType="1" res="-9.3302592635154724e-02" rms="1.3512876629829407e-01" purity="2.4290436506271362e-01" nType="-99"/>
            <Node pos="r" depth="3" NCoef="0" IVar="-1" Cut="0.0000000000000000e+00" cType="1" res="-2.8671830892562866e-01" rms="1.1049858480691910e-01" purity="4.8703562468290329e-02" nType="-99"/>
          </Node>
        </Node>
      </Node>
    </BinaryTree>
    <BinaryTree type="DecisionTree" boostWeight="1.0000000000000000e+00" itree="19">
      <Node pos="s" depth="0" NCoef="0" IVar="9" Cut="2.8716599941253662e-01" cType="1" res="-1.1206956114619970e-03" rms="1.3523930311203003e-01" purity="2.5000000000000000e-01" nType="0">
        <Node pos="l" depth="1" NCoef="0" IVar="1" Cut="8.0164951086044312e-01" cType="1" res="1.4975484460592270e-02" rms="1.2114568799734116e-01" purity="1.7084140330553055e-02" nType="0">
          <Node pos="l" depth="2" NCoef="0" IVar="6" Cut="1.1111456871032715e+01" cType="1" res="2.4225758388638496e-02" rms="1.2029612809419632e-01" purity="2.1402509883046150e-02" nType="0">
            <Node pos="l" depth="3" NCoef="0" IVar="-1" Cut="0.0000000000000000e+00" cType="1" res="-1.4382694661617279e-01" rms="1.9912976026535034e-01" purity="7.1583583950996399e-02" nType="-99"/>
            <Node pos="r" depth="3" NCoef="0" IVar="-1" Cut="0.0000000000000000e+00" cType="1" res="-2.7907097339630127e-01" rms="7.3190376162528992e-02" purity="3.7708533927798271e-03" nType="-99"/>
          </Node>
          <Node pos="r" depth="2" NCoef="0" IVar="-1" Cut="0.0000000000000000e+00" cType="1" res="-3.3154293894767761e-01" rms="1.1846686154603958e-01" purity="1.8612268613651395e-03" nType="-99"/>
        </Node>
        <Node pos="r" depth="1" NCoef="0" IVar="4" Cut="5.1362261176109314e-02" cType="1" res="-1.2106178328394890e-02" rms="1.4303240180015564e-01" purity="4.0896275639533997e-01" nType="0">
          <Node pos="l" depth="2" NCoef="0" IVar="0" Cut="8.2309556007385254e-01" cType="1" res="1.7234086990356445e-02" rms="1.9225117564201355e-01" purity="7.7803350985050201e-02" nType="0">
            <Node pos="l" depth="3" NCoef="0" IVar="-1" Cut="0.0000000000000000e+00" cType="1" res="2.8433126211166382e-01" rms="2.1456608176231384e-01" purity="1.3044956326484680e-01" nType="-99"/>
            <Node pos="r" depth="3" NCoef="0" IVar="-1" Cut="0.0000000000000000e+00" cType="1" res="-1.0030974447727203e-01" rms="1.7407093942165375e-01" purity="4.4538822025060654e-02" nType="-99"/>
          </Node>
          <Node pos="r" depth="2" NCoef="0" IVar="2" Cut="4.5036755502223969e-02" cType="1" res="-2.0829441025853157e-02" rms="1.2336890399456024e-01" purity="5.0742095708847046e-01" nType="0">
            <Node pos="l" depth="3" NCoef="0" IVar="-1" Cut="0.0000000000000000e+00" cType="1" res="-1.3259701430797577e-01" rms="1.3512876629829407e-01" purity="2.8820075094699860e-02" nType="-99"/>
            <Node pos="r" depth="3" NCoef="0" IVar="-1" Cut="0.0000000000000000e+00" cType="1" res="3.3476376533508301e-01" rms="1.1049858480691910e-01" purity="9.5129644870758057e-01" nType="-99"/>
          </Node>
        </Node>
      </Node>
    </BinaryTree>
    <BinaryTree type="DecisionTree" boostWeight="1.0000000000000000e+00" itree="20">
      <Node pos="s" depth="0" NCoef="0" IVar="9" Cut="2.8716599941253662e-01" cType="1" res="-1.1206956114619970e-03" rms="1.3523930311203003e-01" purity="2.5000000000000000e-01" nType="0">
        <Node pos="l" depth="1" NCoef="0" IVar="1" Cut="8.0164951086044312e-01" cType="1" res="1.4975484460592270e-02" rms="1.2114568799734116e-01" purity="2.2051984071731567e-01" nType="0">
          <Node pos="l" depth="2" NCoef="0" IVar="6" Cut="1.1111456871032715e+01" cType="1" res="2.4225758388638496e-02" rms="1.2029612809419632e-01" purity="8.0050937831401825e-03" nType="0">
            <Node pos="l" depth="3" NCoef="0" IVar="-1" Cut="0.0000000000000000e+00" cType="1" res="-2.4498224258422852e-01" rms="1.9912976026535034e-01" purity="2.3308692499995232e-02" nType="-99"/>
            <Node pos="r" depth="3" NCoef="0" IVar="-1" Cut="0.0000000000000000e+00" cType="1" res="-2.4578861892223358e-01" rms="7.3190376162528992e-02" purity="2.6280109304934740e-03" nType="-99"/>
          </Node>
          <Node pos="r" depth="2" NCoef="0" IVar="-1" Cut="0.0000000000000000e+00" cType="1" res="2.8827902674674988e-01" rms="1.1846686154603958e-01" purity="9.6966683864593506e-01" nType="-99"/>
        </Node>
        <Node pos="r" depth="1" NCoef="0" IVar="4" Cut="5.1362261176109314e-02" cType="1" res="-1.2106178328394890e-02" rms="1.4303240180015564e-01" purity="2.7011990547180176e-01" nType="0">
          <Node pos="l" depth="2" NCoef="0" IVar="0" Cut="8.2309556007385254e-01" cType="1" res="1.7234086990356445e-02" rms="1.9225117564201355e-01" purity="0.0000000000000000e+00" nType="0">
            <Node pos="l" depth="3" NCoef="0" IVar="-1" Cut="0.0000000000000000e+00" cType="1" res="-4.0710511803627014e-01" rms="2.1456608176231384e-01" purity="0.0000000000000000e+00" nType="-99"/>
            <Node pos="r" depth="3" NCoef="0" IVar="-1" Cut="0.0000000000000000e+00" cType="1" res="-4.3562734127044678e-01" rms="1.7407093942165375e-01" purity="0.0000000000000000e+00" nType="-99"/>
          </Node>
          <Node pos="r" depth="2" NCoef="0" IVar="2" Cut="4.5036755502223969e-02" cType="1" res="-2.0829441025853157e-02" rms="1.2336890399456024e-01" purity="3.5043027997016907e-01" nType="0">
            <Node pos="l" depth="3" NCoef="0" IVar="-1" Cut="0.0000000000000000e+00" cType="1" res="1.5985547006130219e-01" rms="1.3512876629829407e-01" purity="7.2827553749084473e-01" nType="-99"/>
            <Node pos="r" depth="3" NCoef="0" IVar="-1" Cut="0.0000000000000000e+00" cType="1" res="-3.2682931423187256e-01" rms="1.1049858480691910e-01" purity="0.0000000000000000e+00" nType="-99"/>
          </Node>
        </Node>
      </Node>
    </BinaryTree>
    <BinaryTree type="DecisionTree" boostWeight="1.0000000000000000e+00" itree="21">
      <Node pos="s" depth="0" NCoef="0" IVar="7" Cut="2.4328520894050598e-01" cType="1" res="-3.8355251308530569e-04" rms="1.3095717132091522e-01" purity="5.0000000000000000e-01" nType="0">
        <Node pos="l" depth="1" NCoef="0" IVar="6" Cut="9.0911922454833984e+00" cType="1" res="-1.3742296956479549e-02" rms="1.4248177409172058e-01" purity="1.9183549284934998e-01" nType="0">
          <Node pos="l" depth="2" NCoef="0" IVar="-1" Cut="0.0000000000000000e+00" cType="1" res="-3.4286823868751526e-01" rms="1.5736164152622223e-01" purity="1.1146631091833115e-01" nType="-99"/>
          <Node pos="r" depth="2" NCoef="0" IVar="11" Cut="8.7696781158447266e+00" cType="1" res="-6.9891926832497120e-03" rms="1.3761781156063080e-01" purity="2.1233464777469635e-01" nType="0">
            <Node pos="l" depth="3" NCoef="0" IVar="-1" Cut="0.0000000000000000e+00" cType="1" res="-2.0520544052124023e-01" rms="1.1845523864030838e-01" purity="8.6577653884887695e-02" nType="-99"/>
            <Node pos="r" depth="3" NCoef="0" IVar="-1" Cut="0.0000000000000000e+00" cType="1" res="1.0798667371273041e-01" rms="1.8359576165676117e-01" purity="6.0560351610183716e-01" nType="-99"/>
          </Node>
        </Node>
        <Node pos="r" depth="1" NCoef="0" IVar="8" Cut="-8.6945658922195435e-01" cType="1" res="5.7856864295899868e-03" rms="1.2479586899280548e-01" purity="6.4231431484222412e-01" nType="0">
          <Node pos="l" depth="2" NCoef="0" IVar="6" Cut="1.1109787940979004e+01" cType="1" res="2.3155193775892258e-02" rms="9.7045414149761200e-02" purity="9.8473006486892700e-01" nType="0">
            <Node pos="l" depth="3" NCoef="0" IVar="-1" Cut="0.0000000000000000e+00" cType="1" res="3.1221178174018860e-01" rms="1.3967013359069824e-01" purity="9.6698933839797974e-01" nType="-99"/>
            <Node pos="r" depth="3" NCoef="0" IVar="-1" Cut="0.0000000000000000e+00" cType="1" res="3.5076019167900085e-01" rms="2.3166961967945099e-02" purity="9.9961715936660767e-01" nType="-99"/>
          </Node>
          <Node pos="r" depth="2" NCoef="0" IVar="13" Cut="1.1208702087402344e+02" cType="1" res="-6.0227988287806511e-03" rms="1.3933661580085754e-01" purity="4.0952643752098083e-01" nType="0">
            <Node pos="l" depth="3" NCoef="0" IVar="-1" Cut="0.0000000000000000e+00" cType="1" res="-2.1088089048862457e-01" rms="1.3402725756168365e-01" purity="1.6851969063282013e-01" nType="-99"/>
            <Node pos="r" depth="3" NCoef="0" IVar="-1" Cut="0.0000000000000000e+00" cType="1" res="1.3106191158294678e-01" rms="1.4440578222274780e-01" purity="7.5116348266601562e-01" nType="-99"/>
          </Node>
        </Node>
      </Node>
    </BinaryTree>
    <BinaryTree type="DecisionTree" boostWeight="1.0000000000000000e+00" itree="22">
      <Node pos="s" depth="0" NCoef="0" IVar="7" Cut="2.4328520894050598e-01" cType="1" res="-3.8355251308530569e-04" rms="1.3095717132091522e-01" purity="2.5000000000000000e-01" nType="0">
        <Node pos="l" depth="1" NCoef="0" IVar="6" Cut="9.0911922454833984e+00" cType="1" res="-1.3742296956479549e-02" rms="1.4248177409172058e-01" purity="1.6819592565298080e-02" nType="0">
          <Node pos="l" depth="2" NCoef="0" IVar="-1" Cut="0.0000000000000000e+00" cType="1" res="1.2036168575286865e-01" rms="1.5736164152622223e-01" purity="6.1847537755966187e-02" nType="-99"/>
          <Node pos="r" depth="2" NCoef="0" IVar="11" Cut="8.7696781158447266e+00" cType="1" res="-6.9891926832497120e-03" rms="1.3761781156063080e-01" purity="5.3346478380262852e-03" nType="0">
            <Node pos="l" depth="3" NCoef="0" IVar="-1" Cut="0.0000000000000000e+00" cType="1" res="-3.1187948584556580e-01" rms="1.1845523864030838e-01" purity="2.2503484506160021e-03" nType="-99"/>
            <Node pos="r" depth="3" NCoef="0" IVar="-1" Cut="0.0000000000000000e+00" cType="1" res="-1.7854693531990051e-01" rms="1.8359576165676117e-01" purity="1.4979904517531395e-02" nType="-99"/>
          </Node>
        </Node>
        <Node pos="r" depth="1" NCoef="0" IVar="8" Cut="-8.6945658922195435e-01" cType="1" res="5.7856864295899868e-03" rms="1.2479586899280548e-01" purity="3.5768568515777588e-01" nType="0">
          <Node pos="l" depth="2" NCoef="0" IVar="6" Cut="1.1109787940979004e+01" cType="1" res="2.3155193775892258e-02" rms="9.7045414149761200e-02" purity="1.5269963070750237e-02" nType="0">
            <Node pos="l" depth="3" NCoef="0" IVar="-1" Cut="0.0000000000000000e+00" cType="1" res="-8.9962117373943329e-02" rms="1.3967013359069824e-01" purity="3.3010683953762054e-02" nType="-99"/>
            <Node pos="r" depth="3" NCoef="0" IVar="-1" Cut="0.0000000000000000e+00" cType="1" res="-3.3623546361923218e-01" rms="2.3166961967945099e-02" purity="3.8283853791654110e-04" nType="-99"/>
          </Node>
          <Node pos="r" depth="2" NCoef="0" IVar="13" Cut="1.1208702087402344e+02" cType="1" res="-6.0227988287806511e-03" rms="1.3933661580085754e-01" purity="5.9047359228134155e-01" nType="0">
            <Node pos="l" depth="3" NCoef="0" IVar="-1" Cut="0.0000000000000000e+00" cType="1" res="2.9473066329956055e-01" rms="1.3402725756168365e-01" purity="8.3148032426834106e-01" nType="-99"/>
            <Node pos="r" depth="3" NCoef="0" IVar="-1" Cut="0.0000000000000000e+00" cType="1" res="1.3164391275495291e-03" rms="1.4440578222274780e-01" purity="2.4883651733398438e-01" nType="-99"/>
          </Node>
        </Node>
      </Node>
    </BinaryTree>
    <BinaryTree type="DecisionTree" boostWeight="1.0000000000000000e+00" itree="23">
      <Node pos="s" depth="0" NCoef="0" IVar="7" Cut="2.4328520894050598e-01" cType="1" res="-3.8355251308530569e-04" rms="1.3095717132091522e-01" purity="2.5000000000000000e-01" nType="0">
        <Node pos="l" depth="1" NCoef="0" IVar="6" Cut="9.0911922454833984e+00" cType="1" res="-1.3742296956479549e-02" rms="1.4248177409172058e-01" purity="7.9134494066238403e-01" nType="0">
          <Node pos="l" depth="2" NCoef="0" IVar="-1" Cut="0.0000000000000000e+00" cType="1" res="1.3824054598808289e-01" rms="1.5736164152622223e-01" purity="8.2668614387512207e-01" nType="-99"/>
          <Node pos="r" depth="2" NCoef="0" IVar="11" Cut="8.7696781158447266e+00" cType="1" res="-6.9891926832497120e-03" rms="1.3761781156063080e-01" purity="7.8233069181442261e-01" nType="0">
            <Node pos="l" depth="3" NCoef="0" IVar="-1" Cut="0.0000000000000000e+00" cType="1" res="2.9433619976043701e-01" rms="1.1845523864030838e-01" purity="9.1117203235626221e-01" nType="-99"/>
            <Node pos="r" depth="3" NCoef="0" IVar="-1" Cut="0.0000000000000000e+00" cType="1" res="5.4364115931093693e-03" rms="1.8359576165676117e-01" purity="3.7941658496856689e-01" nType="-99"/>
          </Node>
        </Node>
        <Node pos="r" depth="1" NCoef="0" IVar="8" Cut="-8.6945658922195435e-01" cType="1" res="5.7856864295899868e-03" rms="1.2479586899280548e-01" purity="0.0000000000000000e+00" nType="0">
          <Node pos="l" depth="2" NCoef="0" IVar="6" Cut="1.1109787940979004e+01" cType="1" res="2.3155193775892258e-02" rms="9.7045414149761200e-02" purity="0.0000000000000000e+00" nType="0">
            <Node pos="l" depth="3" NCoef="0" IVar="-1" Cut="0.0000000000000000e+00" cType="1" res="-4.8343935608863831e-01" rms="1.3967013359069824e-01" purity="0.0000000000000000e+00" nType="-99"/>
            <Node pos="r" depth="3" NCoef="0" IVar="-1" Cut="0.0000000000000000e+00" cType="1" res="-3.6497119069099426e-01" rms="2.3166961967945099e-02" purity="0.0000000000000000e+00" nType="-99"/>
          </Node>
          <Node pos="r" depth="2" NCoef="0" IVar="13" Cut="1.1208702087402344e+02" cType="1" res="-6.0227988287806511e-03" rms="1.3933661580085754e-01" purity="0.0000000000000000e+00" nType="0">
            <Node pos="l" depth="3" NCoef="0" IVar="-1" Cut="0.0000000000000000e+00" cType="1" res="-3.3104309439659119e-01" rms="1.3402725756168365e-01" purity="0.0000000000000000e+00" nType="-99"/>
            <Node pos="r" depth="3" NCoef="0" IVar="-1" Cut="0.0000000000000000e+00" cType="1" res="-3.7818107008934021e-01" rms="1.4440578222274780e-01" purity="0.0000000000000000e+00" nType="-99"/>
          </Node>
        </Node>
      </Node>
    </BinaryTree>
    <BinaryTree type="DecisionTree" boostWeight="1.0000000000000000e+00" itree="24">
      <Node pos="s" depth="0" NCoef="0" IVar="0" Cut="1.6990888118743896e-01" cType="1" res="4.8209016676992178e-04" rms="1.2680567800998688e-01" purity="5.0000000000000000e-01" nType="0">
        <Node pos="l" depth="1" NCoef="0" IVar="3" Cut="5.0049769878387451e-01" cType="1" res="-1.3805627822875977e-02" rms="9.3666464090347290e-02" purity="5.3863409906625748e-02" nType="0">
          <Node pos="l" depth="2" NCoef="0" IVar="13" Cut="5.3683681488037109e+01" cType="1" res="-9.1695543378591537e-03" rms="8.5832744836807251e-02" purity="5.8519084006547928e-02" nType="0">
            <Node pos="l" depth="3" NCoef="0" IVar="-1" Cut="0.0000000000000000e+00" cType="1" res="-1.2487655133008957e-01" rms="9.4625219702720642e-02" purity="9.2677734792232513e-02" nType="-99"/>
            <Node pos="r" depth="3" NCoef="0" IVar="-1" Cut="0.0000000000000000e+00" cType="1" res="-2.5204101204872131e-01" rms="7.1464411914348602e-02" purity="1.0424872860312462e-02" nType="-99"/>
          </Node>
          <Node pos="r" depth="2" NCoef="0" IVar="-1" Cut="0.0000000000000000e+00" cType="1" res="-3.0468159914016724e-01" rms="1.0990799218416214e-01" purity="4.2300552129745483e-02" nType="-99"/>
        </Node>
        <Node pos="r" depth="1" NCoef="0" IVar="2" Cut="1.4065593481063843e-01" cType="1" res="3.9823674596846104e-03" rms="1.3344416022300720e-01" purity="6.0929673910140991e-01" nType="0">
          <Node pos="l" depth="2" NCoef="0" IVar="2" Cut="2.6791362091898918e-02" cType="1" res="7.9836847726255655e-04" rms="1.2432414293289185e-01" purity="6.2592411041259766e-01" nType="0">
            <Node pos="l" depth="3" NCoef="0" IVar="-1" Cut="0.0000000000000000e+00" cType="1" res="6.1364937573671341e-02" rms="1.0860286653041840e-01" purity="5.8997541666030884e-01" nType="-99"/>
            <Node pos="r" depth="3" NCoef="0" IVar="-1" Cut="0.0000000000000000e+00" cType="1" res="-1.4940722286701202e-01" rms="2.0240315794944763e-01" purity="8.8063275814056396e-01" nType="-99"/>
          </Node>
          <Node pos="r" depth="2" NCoef="0" IVar="-1" Cut="0.0000000000000000e+00" cType="1" res="1.7829848825931549e-01" rms="1.8836781382560730e-01" purity="4.7934234142303467e-01" nType="-99"/>
        </Node>
      </Node>
    </BinaryTree>
    <BinaryTree type="DecisionTree" boostWeight="1.0000000000000000e+00" itree="25">
      <Node pos="s" depth="0" NCoef="0" IVar="0" Cut="1.6990888118743896e-01" cType="1" res="4.8209016676992178e-04" rms="1.2680567800998688e-01" purity="2.5000000000000000e-01" nType="0">
        <Node pos="l" depth="1" NCoef="0" IVar="3" Cut="5.0049769878387451e-01" cType="1" res="-1.3805627822875977e-02" rms="9.3666464090347290e-02" purity="9.4598430395126343e-01" nType="0">
          <Node pos="l" depth="2" NCoef="0" IVar="13" Cut="5.3683681488037109e+01" cType="1" res="-9.1695543378591537e-03" rms="8.5832744836807251e-02" purity="9.4126731157302856e-01" nType="0">
            <Node pos="l" depth="3" NCoef="0" IVar="-1" Cut="0.0000000000000000e+00" cType="1" res="3.5130289196968079e-01" rms="9.4625219702720642e-02" purity="9.0695691108703613e-01" nType="-99"/>
            <Node pos="r" depth="3" NCoef="0" IVar="-1" Cut="0.0000000000000000e+00" cType="1" res="2.7803009748458862e-01" rms="7.1464411914348602e-02" purity="9.8957514762878418e-01" nType="-99"/>
          </Node>
          <Node pos="r" depth="2" NCoef="0" IVar="-1" Cut="0.0000000000000000e+00" cType="1" res="4.5048913359642029e-01" rms="1.0990799218416214e-01" purity="9.5769947767257690e-01" nType="-99"/>
        </Node>
        <Node pos="r" depth="1" NCoef="0" IVar="2" Cut="1.4065593481063843e-01" cType="1" res="3.9823674596846104e-03" rms="1.3344416022300720e-01" purity="7.9494252800941467e-02" nType="0">
          <Node pos="l" depth="2" NCoef="0" IVar="2" Cut="2.6791362091898918e-02" cType="1" res="7.9836847726255655e-04" rms="1.2432414293289185e-01" purity="2.3048618808388710e-02" nType="0">
            <Node pos="l" depth="3" NCoef="0" IVar="-1" Cut="0.0000000000000000e+00" cType="1" res="-1.6574944555759430e-01" rms="1.0860286653041840e-01" purity="9.4545548781752586e-03" nType="-99"/>
            <Node pos="r" depth="3" NCoef="0" IVar="-1" Cut="0.0000000000000000e+00" cType="1" res="2.7581977844238281e-01" rms="2.0240315794944763e-01" purity="1.1936721205711365e-01" nType="-99"/>
          </Node>
          <Node pos="r" depth="2" NCoef="0" IVar="-1" Cut="0.0000000000000000e+00" cType="1" res="-1.2187857180833817e-01" rms="1.8836781382560730e-01" purity="5.2065765857696533e-01" nType="-99"/>
        </Node>
      </Node>
    </BinaryTree>
    <BinaryTree type="DecisionTree" boostWeight="1.0000000000000000e+00" itree="26">
      <Node pos="s" depth="0" NCoef="0" IVar="0" Cut="1.6990888118743896e-01" cType="1" res="4.8209016676992178e-04" rms="1.2680567800998688e-01" purity="2.5000000000000000e-01" nType="0">
        <Node pos="l" depth="1" NCoef="0" IVar="3" Cut="5.0049769878387451e-01" cType="1" res="-1.3805627822875977e-02" rms="9.3666464090347290e-02" purity="1.5229564451146871e-04" nType="0">
          <Node pos="l" depth="2" NCoef="0" IVar="13" Cut="5.3683681488037109e+01" cType="1" res="-9.1695543378591537e-03" rms="8.5832744836807251e-02" purity="2.1361596009228379e-04" nType="0">
            <Node pos="l" depth="3" NCoef="0" IVar="-1" Cut="0.0000000000000000e+00" cType="1" res="-4.0452429652214050e-01" rms="9.4625219702720642e-02" purity="3.6533552338369191e-04" nType="-99"/>
            <Node pos="r" depth="3" NCoef="0" IVar="-1" Cut="0.0000000000000000e+00" cType="1" res="-3.0330172181129456e-01" rms="7.1464411914348602e-02" purity="0.0000000000000000e+00" nType="-99"/>
          </Node>
          <Node pos="r" depth="2" NCoef="0" IVar="-1" Cut="0.0000000000000000e+00" cType="1" res="-3.7500315904617310e-01" rms="1.0990799218416214e-01" purity="0.0000000000000000e+00" nType="-99"/>
        </Node>
        <Node pos="r" depth="1" NCoef="0" IVar="2" Cut="1.4065593481063843e-01" cType="1" res="3.9823674596846104e-03" rms="1.3344416022300720e-01" purity="3.1120893359184265e-01" nType="0">
          <Node pos="l" depth="2" NCoef="0" IVar="2" Cut="2.6791362091898918e-02" cType="1" res="7.9836847726255655e-04" rms="1.2432414293289185e-01" purity="3.5102728009223938e-01" nType="0">
            <Node pos="l" depth="3" NCoef="0" IVar="-1" Cut="0.0000000000000000e+00" cType="1" res="7.0533670485019684e-02" rms="1.0860286653041840e-01" purity="4.0057000517845154e-01" nType="-99"/>
            <Node pos="r" depth="3" NCoef="0" IVar="-1" Cut="0.0000000000000000e+00" cType="1" res="-3.8110095262527466e-01" rms="2.0240315794944763e-01" purity="0.0000000000000000e+00" nType="-99"/>
          </Node>
          <Node pos="r" depth="2" NCoef="0" IVar="-1" Cut="0.0000000000000000e+00" cType="1" res="-3.1988868117332458e-01" rms="1.8836781382560730e-01" purity="0.0000000000000000e+00" nType="-99"/>
        </Node>
      </Node>
    </BinaryTree>
    <BinaryTree type="DecisionTree" boostWeight="1.0000000000000000e+00" itree="27">
      <Node pos="s" depth="0" NCoef="0" IVar="5" Cut="4.6614568680524826e-02" cType="1" res="9.3419244512915611e-04" rms="1.2499102950096130e-01" purity="5.0000000000000000e-01" nType="0">
        <Node pos="l" depth="1" NCoef="0" IVar="6" Cut="1.0101493835449219e+01" cType="1" res="-4.6194745227694511e-03" rms="1.1797533929347992e-01" purity="2.3961851000785828e-01" nType="0">
          <Node pos="l" depth="2" NCoef="0" IVar="2" Cut="1.3892140984535217e-01" cType="1" res="-9.3475412577390671e-03" rms="1.0761391371488571e-01" purity="3.2243341207504272e-02" nType="0">
            <Node pos="l" depth="3" NCoef="0" IVar="-1" Cut="0.0000000000000000e+00" cType="1" res="-1.4280378818511963e-01" rms="1.3730147480964661e-01" purity="5.5257543921470642e-02" nType="-99"/>
            <Node pos="r" depth="3" NCoef="0" IVar="-1" Cut="0.0000000000000000e+00" cType="1" res="-1.9355082511901855e-01" rms="4.5762315392494202e-02" purity="2.3921306710690260e-03" nType="-99"/>
          </Node>
          <Node pos="r" depth="2" NCoef="0" IVar="11" Cut="1.3044883728027344e+01" cType="1" res="4.0377345867455006e-03" rms="1.3447001576423645e-01" purity="6.1932772397994995e-01" nType="0">
            <Node pos="l" depth="3" NCoef="0" IVar="-1" Cut="0.0000000000000000e+00" cType="1" res="-7.6606757938861847e-03" rms="1.4375965297222137e-01" purity="4.6564713120460510e-01" nType="-99"/>
            <Node pos="r" depth="3" NCoef="0" IVar="-1" Cut="0.0000000000000000e+00" cType="1" res="2.3795348405838013e-01" rms="1.1008395254611969e-01" purity="9.6499168872833252e-01" nType="-99"/>
          </Node>
        </Node>
        <Node pos="r" depth="1" NCoef="0" IVar="0" Cut="6.3143801689147949e-01" cType="1" res="7.8339232131838799e-03" rms="1.3287043571472168e-01" purity="8.2349115610122681e-01" nType="0">
          <Node pos="l" depth="2" NCoef="0" IVar="6" Cut="5.0505442619323730e+00" cType="1" res="1.7790282145142555e-03" rms="1.2375041842460632e-01" purity="7.3130726814270020e-01" nType="0">
            <Node pos="l" depth="3" NCoef="0" IVar="-1" Cut="0.0000000000000000e+00" cType="1" res="-2.2574752569198608e-01" rms="1.5879762172698975e-01" purity="3.0190417170524597e-01" nType="-99"/>
            <Node pos="r" depth="3" NCoef="0" IVar="-1" Cut="0.0000000000000000e+00" cType="1" res="2.3252417147159576e-01" rms="1.0235844552516937e-01" purity="9.2436200380325317e-01" nType="-99"/>
          </Node>
          <Node pos="r" depth="2" NCoef="0" IVar="2" Cut="4.6885311603546143e-02" cType="1" res="1.7421469092369080e-02" rms="1.4563804864883423e-01" purity="9.6945852041244507e-01" nType="0">
            <Node pos="l" depth="3" NCoef="0" IVar="-1" Cut="0.0000000000000000e+00" cType="1" res="1.0940766334533691e-01" rms="1.1677446216344833e-01" purity="9.8080211877822876e-01" nType="-99"/>
            <Node pos="r" depth="3" NCoef="0" IVar="-1" Cut="0.0000000000000000e+00" cType="1" res="2.2532428801059723e-01" rms="1.8381652235984802e-01" purity="9.4972062110900879e-01" nType="-99"/>
          </Node>
        </Node>
      </Node>
    </BinaryTree>
    <BinaryTree type="DecisionTree" boostWeight="1.0000000000000000e+00" itree="28">
      <Node pos="s" depth="0" NCoef="0" IVar="5" Cut="4.6614568680524826e-02" cType="1" res="9.3419244512915611e-04" rms="1.2499102950096130e-01" purity="2.5000000000000000e-01" nType="0">
        <Node pos="l" depth="1" NCoef="0" IVar="6" Cut="1.0101493835449219e+01" cType="1" res="-4.6194745227694511e-03" rms="1.1797533929347992e-01" purity="3.0915379524230957e-01" nType="0">
          <Node pos="l" depth="2" NCoef="0" IVar="2" Cut="1.3892140984535217e-01" cType="1" res="-9.3475412577390671e-03" rms="1.0761391371488571e-01" purity="4.7015133500099182e-01" nType="0">
            <Node pos="l" depth="3" NCoef="0" IVar="-1" Cut="0.0000000000000000e+00" cType="1" res="9.8591618239879608e-02" rms="1.3730147480964661e-01" purity="6.3501432538032532e-02" nType="-99"/>
            <Node pos="r" depth="3" NCoef="0" IVar="-1" Cut="0.0000000000000000e+00" cType="1" res="2.4281406402587891e-01" rms="4.5762315392494202e-02" purity="9.9760788679122925e-01" nType="-99"/>
          </Node>
          <Node pos="r" depth="2" NCoef="0" IVar="11" Cut="1.3044883728027344e+01" cType="1" res="4.0377345867455006e-03" rms="1.3447001576423645e-01" purity="1.4363265596330166e-02" nType="0">
            <Node pos="l" depth="3" NCoef="0" IVar="-1" Cut="0.0000000000000000e+00" cType="1" res="-1.9992126524448395e-01" rms="1.4375965297222137e-01" purity="1.3990402221679688e-02" nType="-99"/>
            <Node pos="r" depth="3" NCoef="0" IVar="-1" Cut="0.0000000000000000e+00" cType="1" res="-1.4642897248268127e-01" rms="1.1008395254611969e-01" purity="1.5201924368739128e-02" nType="-99"/>
          </Node>
        </Node>
        <Node pos="r" depth="1" NCoef="0" IVar="0" Cut="6.3143801689147949e-01" cType="1" res="7.8339232131838799e-03" rms="1.3287043571472168e-01" purity="1.7650884389877319e-01" nType="0">
          <Node pos="l" depth="2" NCoef="0" IVar="6" Cut="5.0505442619323730e+00" cType="1" res="1.7790282145142555e-03" rms="1.2375041842460632e-01" purity="2.6869276165962219e-01" nType="0">
            <Node pos="l" depth="3" NCoef="0" IVar="-1" Cut="0.0000000000000000e+00" cType="1" res="2.7605807781219482e-01" rms="1.5879762172698975e-01" purity="6.9809585809707642e-01" nType="-99"/>
            <Node pos="r" depth="3" NCoef="0" IVar="-1" Cut="0.0000000000000000e+00" cType="1" res="-1.7518241703510284e-01" rms="1.0235844552516937e-01" purity="7.5637981295585632e-02" nType="-99"/>
          </Node>
          <Node pos="r" depth="2" NCoef="0" IVar="2" Cut="4.6885311603546143e-02" cType="1" res="1.7421469092369080e-02" rms="1.4563804864883423e-01" purity="3.0541447922587395e-02" nType="0">
            <Node pos="l" depth="3" NCoef="0" IVar="-1" Cut="0.0000000000000000e+00" cType="1" res="4.1112232953310013e-02" rms="1.1677446216344833e-01" purity="1.9197873771190643e-02" nType="-99"/>
            <Node pos="r" depth="3" NCoef="0" IVar="-1" Cut="0.0000000000000000e+00" cType="1" res="-2.0394742488861084e-01" rms="1.8381652235984802e-01" purity="5.0279326736927032e-02" nType="-99"/>
          </Node>
        </Node>
      </Node>
    </BinaryTree>
    <BinaryTree type="DecisionTree" boostWeight="1.0000000000000000e+00" itree="29">
      <Node pos="s" depth="0" NCoef="0" IVar="5" Cut="4.6614568680524826e-02" cType="1" res="9.3419244512915611e-04" rms="1.2499102950096130e-01" purity="2.5000000000000000e-01" nType="0">
        <Node pos="l" depth="1" NCoef="0" IVar="6" Cut="1.0101493835449219e+01" cType="1" res="-4.6194745227694511e-03" rms="1.1797533929347992e-01" purity="4.5122763514518738e-01" nType="0">
          <Node pos="l" depth="2" NCoef="0" IVar="2" Cut="1.3892140984535217e-01" cType="1" res="-9.3475412577390671e-03" rms="1.0761391371488571e-01" purity="4.9760532379150391e-01" nType="0">
            <Node pos="l" depth="3" NCoef="0" IVar="-1" Cut="0.0000000000000000e+00" cType="1" res="3.3651158213615417e-02" rms="1.3730147480964661e-01" purity="8.8124102354049683e-01" nType="-99"/>
            <Node pos="r" depth="3" NCoef="0" IVar="-1" Cut="0.0000000000000000e+00" cType="1" res="-2.9787418246269226e-01" rms="4.5762315392494202e-02" purity="0.0000000000000000e+00" nType="-99"/>
          </Node>
          <Node pos="r" depth="2" NCoef="0" IVar="11" Cut="1.3044883728027344e+01" cType="1" res="4.0377345867455006e-03" rms="1.3447001576423645e-01" purity="3.6630901694297791e-01" nType="0">
            <Node pos="l" depth="3" NCoef="0" IVar="-1" Cut="0.0000000000000000e+00" cType="1" res="1.0859134793281555e-01" rms="1.4375965297222137e-01" purity="5.2036249637603760e-01" nType="-99"/>
            <Node pos="r" depth="3" NCoef="0" IVar="-1" Cut="0.0000000000000000e+00" cType="1" res="-2.7789938449859619e-01" rms="1.1008395254611969e-01" purity="1.9806401804089546e-02" nType="-99"/>
          </Node>
        </Node>
        <Node pos="r" depth="1" NCoef="0" IVar="0" Cut="6.3143801689147949e-01" cType="1" res="7.8339232131838799e-03" rms="1.3287043571472168e-01" purity="0.0000000000000000e+00" nType="0">
          <Node pos="l" depth="2" NCoef="0" IVar="6" Cut="5.0505442619323730e+00" cType="1" res="1.7790282145142555e-03" rms="1.2375041842460632e-01" purity="0.0000000000000000e+00" nType="0">
            <Node pos="l" depth="3" NCoef="0" IVar="-1" Cut="0.0000000000000000e+00" cType="1" res="-3.3397993445396423e-01" rms="1.5879762172698975e-01" purity="0.0000000000000000e+00" nType="-99"/>
            <Node pos="r" depth="3" NCoef="0" IVar="-1" Cut="0.0000000000000000e+00" cType="1" res="-3.6444559693336487e-01" rms="1.0235844552516937e-01" purity="0.0000000000000000e+00" nType="-99"/>
          </Node>
          <Node pos="r" depth="2" NCoef="0" IVar="2" Cut="4.6885311603546143e-02" cType="1" res="1.7421469092369080e-02" rms="1.4563804864883423e-01" purity="0.0000000000000000e+00" nType="0">
            <Node pos="l" depth="3" NCoef="0" IVar="-1" Cut="0.0000000000000000e+00" cType="1" res="-4.0462636947631836e-01" rms="1.1677446216344833e-01" purity="0.0000000000000000e+00" nType="-99"/>
            <Node pos="r" depth="3" NCoef="0" IVar="-1" Cut="0.0000000000000000e+00" cType="1" res="-3.4797957539558411e-01" rms="1.8381652235984802e-01" purity="0.0000000000000000e+00" nType="-99"/>
          </Node>
        </Node>
      </Node>
    </BinaryTree>
    <BinaryTree type="DecisionTree" boostWeight="1.0000000000000000e+00" itree="30">
      <Node pos="s" depth="0" NCoef="0" IVar="13" Cut="2.7934860229492188e+02" cType="1" res="1.9099848577752709e-04" rms="1.2268669903278351e-01" purity="5.0000000000000000e-01" nType="0">
        <Node pos="l" depth="1" NCoef="0" IVar="8" Cut="-7.9355150461196899e-01" cType="1" res="-1.2690093135461211e-03" rms="1.2076932191848755e-01" purity="4.6746653318405151e-01" nType="0">
          <Node pos="l" depth="2" NCoef="0" IVar="8" Cut="-2.9011390209197998e+00" cType="1" res="2.1454023662954569e-03" rms="1.1310318112373352e-01" purity="5.5983662605285645e-01" nType="0">
            <Node pos="l" depth="3" NCoef="0" IVar="-1" Cut="0.0000000000000000e+00" cType="1" res="-6.6289246082305908e-02" rms="1.3438536226749420e-01" purity="1.6373205184936523e-01" nType="-99"/>
            <Node pos="r" depth="3" NCoef="0" IVar="-1" Cut="0.0000000000000000e+00" cType="1" res="2.1234637498855591e-01" rms="8.3872020244598389e-02" purity="9.8560011386871338e-01" nType="-99"/>
          </Node>
          <Node pos="r" depth="2" NCoef="0" IVar="2" Cut="9.4293370842933655e-02" cType="1" res="-7.5395223684608936e-03" rms="1.3348083198070526e-01" purity="2.9783037304878235e-01" nType="0">
            <Node pos="l" depth="3" NCoef="0" IVar="-1" Cut="0.0000000000000000e+00" cType="1" res="-2.8186875581741333e-01" rms="2.1758210659027100e-01" purity="8.7149840593338013e-01" nType="-99"/>
            <Node pos="r" depth="3" NCoef="0" IVar="-1" Cut="0.0000000000000000e+00" cType="1" res="-4.0480971336364746e-02" rms="1.0882584750652313e-01" purity="1.8490496277809143e-01" nType="-99"/>
          </Node>
        </Node>
        <Node pos="r" depth="1" NCoef="0" IVar="-1" Cut="0.0000000000000000e+00" cType="1" res="2.0072931051254272e-01" rms="1.3929766416549683e-01" purity="8.1904441118240356e-01" nType="-99"/>
      </Node>
    </BinaryTree>
    <BinaryTree type="DecisionTree" boostWeight="1.0000000000000000e+00" itree="31">
      <Node pos="s" depth="0" NCoef="0" IVar="13" Cut="2.7934860229492188e+02" cType="1" res="1.9099848577752709e-04" rms="1.2268669903278351e-01" purity="2.5000000000000000e-01" nType="0">
        <Node pos="l" depth="1" NCoef="0" IVar="8" Cut="-7.9355150461196899e-01" cType="1" res="-1.2690093135461211e-03" rms="1.2076932191848755e-01" purity="2.5704059004783630e-01" nType="0">
          <Node pos="l" depth="2" NCoef="0" IVar="8" Cut="-2.9011390209197998e+00" cType="1" res="2.1454023662954569e-03" rms="1.1310318112373352e-01" purity="1.4659468084573746e-02" nType="0">
            <Node pos="l" depth="3" NCoef="0" IVar="-1" Cut="0.0000000000000000e+00" cType="1" res="-9.2020325362682343e-02" rms="1.3438536226749420e-01" purity="1.4900942333042622e-02" nType="-99"/>
            <Node pos="r" depth="3" NCoef="0" IVar="-1" Cut="0.0000000000000000e+00" cType="1" res="-4.6683702617883682e-02" rms="8.3872020244598389e-02" purity="1.4399916864931583e-02" nType="-99"/>
          </Node>
          <Node pos="r" depth="2" NCoef="0" IVar="2" Cut="9.4293370842933655e-02" cType="1" res="-7.5395223684608936e-03" rms="1.3348083198070526e-01" purity="7.0216959714889526e-01" nType="0">
            <Node pos="l" depth="3" NCoef="0" IVar="-1" Cut="0.0000000000000000e+00" cType="1" res="3.7786388397216797e-01" rms="2.1758210659027100e-01" purity="1.2850157916545868e-01" nType="-99"/>
            <Node pos="r" depth="3" NCoef="0" IVar="-1" Cut="0.0000000000000000e+00" cType="1" res="8.9676223695278168e-02" rms="1.0882584750652313e-01" purity="8.1509506702423096e-01" nType="-99"/>
          </Node>
        </Node>
        <Node pos="r" depth="1" NCoef="0" IVar="-1" Cut="0.0000000000000000e+00" cType="1" res="-1.2422902882099152e-01" rms="1.3929766416549683e-01" purity="1.8095554411411285e-01" nType="-99"/>
      </Node>
    </BinaryTree>
    <BinaryTree type="DecisionTree" boostWeight="1.0000000000000000e+00" itree="32">
      <Node pos="s" depth="0" NCoef="0" IVar="13" Cut="2.7934860229492188e+02" cType="1" res="1.9099848577752709e-04" rms="1.2268669903278351e-01" purity="2.5000000000000000e-01" nType="0">
        <Node pos="l" depth="1" NCoef="0" IVar="8" Cut="-7.9355150461196899e-01" cType="1" res="-1.2690093135461211e-03" rms="1.2076932191848755e-01" purity="2.7549287676811218e-01" nType="0">
          <Node pos="l" depth="2" NCoef="0" IVar="8" Cut="-2.9011390209197998e+00" cType="1" res="2.1454023662954569e-03" rms="1.1310318112373352e-01" purity="4.2550390958786011e-01" nType="0">
